[ 0.66788599  0.5117849  -0.19184566  0.0881304  -0.44999652 -0.54203471
 -0.44988827 -0.93706136  0.76234037 -0.37562318  0.82922599  0.83047961
 -0.5230566   0.06625037 -0.68849355  0.46298767 -0.89035728  0.79518466
 -0.74342698 -0.50497842  0.91008603 -0.47097814 -0.74834103  0.45902992
 -0.74578469  0.18271586  0.34610481  0.27162833  0.01863884  0.62088478]
[ 0.4542478  -0.48398184 -0.55650879 -0.13224701 -0.39086071  0.76591549
  0.11987096  0.60670296  0.35986417 -0.19295532  0.70423021 -0.61853518
  0.67763971  0.13349911  0.16400295  0.24726676  0.56771067  0.43241349
  0.41045441  0.41322133 -0.40723893 -0.20438127  0.48630767 -0.99639297
 -0.50904169 -0.30315455  0.72073172  0.49530667  0.14205896 -0.06777019]
[ 0.96012892 -0.57870163  0.10627658 -0.81584369  0.22629819 -0.635661
 -0.78957548  0.269438   -0.17979572  0.18451682  0.80324489  0.49103751
  0.58766497 -0.37100922  0.72812115 -0.94649289 -0.29841442  0.54831017
 -0.86926434  0.82411611 -0.03879258 -0.54316027 -0.51790951 -0.39823235
 -0.67217042  0.62720842  0.53437011 -0.61545259 -0.16653132  0.88393809]
[ 0.71790045  0.82520139 -0.71056298 -0.0012411   0.39290029  0.96956843
  0.87491139 -0.59539053  0.29402996  0.81332292  0.47321524 -0.4716995
  0.45420087 -0.89960888  0.39234094 -0.94149352 -0.4120858   0.77296107
 -0.30086208 -0.70391179 -0.65896264 -0.16433358  0.02282779 -0.7944787
 -0.16614192  0.01595625  0.05078658  0.65079145  0.29479085 -0.46702444]
[ 0.28213631  0.67074178 -0.65557034  0.25244564  0.49756595 -0.37707214
  0.66414406 -0.08467696 -0.45508504  0.54004514  0.4887241  -0.2042728
 -0.4692485  -0.15156921  0.33500632  0.15078554  0.54810965 -0.2704846
  0.3949005   0.11742612  0.03425925  0.07562763 -0.90085318  0.17658558
 -0.90350924  0.17915485  0.77174117  0.6117078  -0.57188053  0.92388619]
[-0.87726739 -0.05320762  0.12618282  0.38683073 -0.03541077 -0.37630954
  0.10419177 -0.16828535 -0.90271543  0.83605019  0.25966808 -0.33816314
  0.16658842  0.38832116 -0.54006014 -0.81093529  0.11232929  0.73427432
 -0.36952999  0.08107334  0.87633789  0.80877894 -0.08824746 -0.38352982
  0.9167597  -0.40159699  0.68793242  0.40678934 -0.75843041 -0.92056946]
[-0.61790479  0.93903735  0.06629747 -0.80836357  0.71861234 -0.93666949
  0.02102327  0.02940313 -0.10742415 -0.29994629 -0.61645684  0.8200579
  0.23312646 -0.71250441  0.54056269  0.03212592  0.81142831 -0.11856481
 -0.71425842 -0.93825007 -0.1507021  -0.66006602  0.58352299  0.39577097
 -0.91657969 -0.91586505 -0.55077889  0.14546164 -0.5036628   0.81239971]
[-0.1447275  -0.15971366  0.24882071 -0.75196432  0.60643075  0.65911269
  0.66525664 -0.47756412  0.13268691  0.69660223 -0.64804655  0.36428923
  0.75317136  0.45917037 -0.35955152 -0.63008662  0.92616746  0.84636667
  0.56238844 -0.38164319 -0.67065656 -0.77530231  0.27332268 -0.45272081
  0.76186673  0.24633805  0.55257815 -0.49730474  0.05880981  0.62344496]
[-0.13924554 -0.32079231 -0.48033276  0.75256719 -0.35965784 -0.79774726
  0.56179081 -0.90671941  0.92441939 -0.76634564 -0.81874429 -0.34781959
 -0.0552179  -0.02822817  0.90573269 -0.48998271  0.32429708 -0.80970273
 -0.60490309 -0.86723767  0.56985134  0.99789774  0.9850681  -0.93558103
 -0.53353056 -0.24069771 -0.08031756  0.28073767 -0.67797927 -0.45476002]
[ 0.49048774  0.70401645  0.28364924 -0.26684733  0.87106333  0.88486923
  0.18014844  0.53111308 -0.36297099 -0.75987666  0.62416631 -0.35990355
 -0.09763331  0.68012894  0.74591899 -0.43433858  0.29478757 -0.00373006
  0.05351654  0.48417161  0.14897112  0.27635004 -0.23581374  0.11146779
 -0.32010047  0.44356903  0.99921911  0.3635586  -0.35928725 -0.26393269]
[ 0.66591702  0.86677928 -0.36019064 -0.5737718   0.95682025 -0.59666958
 -0.2713836   0.72525471  0.02570663 -0.39406658  0.05915391 -0.162864
 -0.54233855 -0.50008234  0.79088529  0.39450301 -0.76398176  0.85463747
 -0.39675438 -0.13048072  0.53536898 -0.38352026  0.27612992 -0.49168313
 -0.98757177 -0.57783098 -0.06583348  0.84902715  0.37336119 -0.20470167]
[ 0.70515055  0.27710133  0.43451476  0.28029018  0.14862387 -0.93354388
 -0.82361332 -0.39873357 -0.19996871  0.29886931  0.94052338 -0.94776385
 -0.1122848  -0.96292773 -0.35188043 -0.7018786   0.67940056 -0.74295169
  0.11872747 -0.78838334 -0.92018852  0.62394512  0.71958153 -0.00375161
  0.3682033   0.98691102 -0.18959535 -0.9633945   0.82369228  0.2105112 ]
[-0.92183657 -0.67034353  0.04087023  0.54125191 -0.39989864  0.85920945
 -0.38008648  0.88274717 -0.45254284  0.62598571  0.54380152  0.52954048
  0.59967554 -0.20889709  0.52944664  0.48140307  0.47749213 -0.39783836
 -0.02364639 -0.95695905  0.30198855  0.29784318 -0.26887865 -0.39378012
  0.36276592  0.29281746 -0.71967775  0.09545931  0.08876149 -0.92874713]
[-0.67359342  0.82381489  0.78792669 -0.29846592  0.07461754 -0.05121882
  0.97708662 -0.23587741  0.21997818  0.9160487  -0.20790464  0.77942613
  0.11133828  0.69634454  0.90997692  0.24103313 -0.61014996 -0.22695607
 -0.36707447 -0.54342816  0.82470232  0.14141054 -0.9938974   0.36319699
 -0.68703985 -0.28735746 -0.2260413  -0.44137193 -0.99165372  0.40494382]
[ 0.62347489  0.77279217 -0.2932495   0.62513993 -0.64501534 -0.2873404
  0.16519559 -0.5535101   0.16644174 -0.03504457  0.61921113  0.70667846
  0.63725921  0.13410996 -0.17068042 -0.77775374  0.84085757 -0.51258436
  0.65016472 -0.04135301  0.80146119 -0.10596994 -0.81196796 -0.29245096
  0.73079674 -0.49111795  0.05702622  0.88301701 -0.09320795  0.66773923]
[-0.08163288 -0.4149517  -0.7459826   0.88854148 -0.69694362 -0.61755296
  0.85912681  0.29070851 -0.55873479 -0.36350503  0.67321031 -0.3834963
  0.01274386  0.3369756   0.45277878 -0.59497106 -0.40256315  0.45110094
  0.30891491  0.67593147 -0.87067193 -0.54517132  0.52756328  0.03021775
  0.76220314  0.28099177 -0.8704312  -0.91986737 -0.96246837  0.42442648]
[ 0.94262382 -0.74902679  0.37412875  0.95381925 -0.63209265 -0.91768585
  0.77636363 -0.30372545 -0.46727944  0.97128694 -0.2566688  -0.22295329
 -0.40015318 -0.44742345 -0.1560919  -0.9691078   0.53567957 -0.90115074
 -0.54027522  0.8514197  -0.71866361 -0.0427576  -0.50019097  0.78813194
  0.38905775 -0.78408999 -0.18199765 -0.10582671 -0.79591717 -0.40379911]
[-0.14747577  0.50572626  0.17177827 -0.33283752 -0.98608997  0.12840895
 -0.76736368 -0.12275619 -0.81428669 -0.44325503  0.57318986  0.06915244
 -0.93363467 -0.23931747 -0.63582581 -0.90741425  0.94356984 -0.53429566
 -0.95773716  0.64995964  0.64427155 -0.44124384  0.73699164 -0.73002722
  0.37441946  0.87245151  0.40087161  0.51511487 -0.16742775 -0.57082361]
[-0.65891852  0.05126339  0.21349223 -0.86964125 -0.18879352 -0.97371638
 -0.14315013 -0.02623133 -0.81134372  0.28233622  0.48383766  0.07147653
 -0.59765259  0.91136345 -0.14419157  0.38884398  0.76132567 -0.62901783
 -0.75271113  0.69991914  0.77153869 -0.15751475  0.97131252  0.76685653
  0.46938652 -0.65230974  0.78213201  0.98211722  0.16803234 -0.84093375]
[ 0.33714661 -0.8078591  -0.5353342   0.21538152  0.96349802  0.90513915
  0.11270862  0.31598206 -0.22780925 -0.04870021 -0.72438834  0.14404668
 -0.56611221  0.2953845  -0.73799289  0.76178204  0.19567518 -0.14595681
 -0.10167304 -0.08804847 -0.99990977  0.43825311  0.40234422  0.09508428
 -0.22181303  0.39240725  0.25140345  0.10398316  0.96386994 -0.49370684]
[-0.73786716  0.72439367  0.08938087  0.56105631 -0.83928964 -0.83241811
  0.67538794  0.0457588  -0.9920952  -0.1476274   0.96931881  0.07927741
  0.96495651  0.41141916  0.0950253  -0.06000495  0.46719493 -0.40231328
 -0.4866144  -0.47191956  0.87686226  0.19699564  0.35869164 -0.59265498
  0.90458346 -0.4405651   0.6845589  -0.6465376   0.39434141 -0.9293996 ]
[-0.17802994 -0.32222845 -0.43812751  0.4543756   0.79488631 -0.01134074
 -0.23923853 -0.43137433 -0.70935073  0.84851388  0.12807574  0.1622442
  0.83006093 -0.03009178 -0.67785999  0.63600156  0.14067063  0.51373293
  0.8678474  -0.16466737 -0.9883733  -0.78675596  0.82314554  0.16072308
 -0.88989044  0.75166691  0.14179757  0.00470471  0.6463904   0.62129475]
[ 0.14805732  0.38304489  0.7603197   0.99333446  0.88785235 -0.7412545
 -0.73863831  0.84420922  0.99410013 -0.23472792 -0.11079271 -0.33813306
 -0.97591802  0.10325039 -0.41990001 -0.76347121 -0.19343753  0.49143236
 -0.11256992 -0.48014659  0.93573437  0.34934624 -0.95666612  0.72073886
  0.56434654  0.09047797 -0.16761034  0.90070831 -0.14759835 -0.50136021]
[-0.82486528 -0.55447165  0.14428025  0.33898048 -0.9903937   0.76205269
 -0.92682385 -0.26660817 -0.94320026  0.79930847 -0.01053382 -0.3027541
  0.6808798  -0.82218111  0.45273682  0.39330292 -0.09779119 -0.12696065
 -0.50830325 -0.82052253  0.113521   -0.92763161  0.02092092 -0.63730333
  0.79877285 -0.79342686 -0.32561973 -0.63016243  0.12002936 -0.79793517]
[ 0.99605334 -0.61685912  0.26106475  0.77943397  0.28399606 -0.10744397
  0.18378149 -0.51627055  0.33442228  0.49665053  0.2566312  -0.90652988
 -0.02192201  0.18701795 -0.56182825 -0.54395643 -0.93905182 -0.38625567
 -0.66369146 -0.6704125   0.71674336 -0.84967267  0.60019819  0.6248285
  0.19795366  0.50362765  0.30948986  0.59180482  0.31704484  0.72159503]
[ 0.68486743  0.07877468 -0.69692852 -0.52879601  0.58046309 -0.1111388
 -0.26001403 -0.53353061  0.21254846 -0.80102328  0.08258524  0.84242995
 -0.01847083  0.17124694  0.75808238 -0.6943172   0.39106469  0.31748397
 -0.11327096  0.10662698  0.75597809  0.03818674 -0.63384547  0.64831057
  0.21476807 -0.64550527  0.56214528  0.47314579  0.13629833  0.14755798]
[ 0.94173075 -0.50167562  0.5182533   0.95206316 -0.20754166 -0.18966666
 -0.61954714 -0.36944794 -0.10054776 -0.45664588 -0.7862771  -0.98134631
 -0.79564968  0.19332455 -0.16086145  0.52232605  0.88368216 -0.58770864
  0.5748744   0.45086149 -0.32949652 -0.49999609 -0.36851181 -0.85520853
 -0.62335491  0.20848952  0.64238383  0.34926144 -0.00281672 -0.71863309]
[ 0.53347751  0.17155346  0.00323521  0.39772191  0.81217994  0.31555421
  0.02654374 -0.72714604 -0.97129068 -0.55950759 -0.9653349   0.10916342
  0.17165777  0.27909438 -0.03039973 -0.73779     0.52614364 -0.91626356
  0.59080634 -0.10387477 -0.63078869 -0.47711134 -0.40361263 -0.75491948
  0.28536379 -0.09035912  0.88416372 -0.21065803 -0.35986209 -0.37946762]
[-0.36803904  0.44953064 -0.96730519 -0.42972958  0.67786612  0.08956308
 -0.44197905 -0.61156725 -0.7358393  -0.08392989 -0.74319086 -0.74190414
  0.95321299  0.0849564  -0.7109083   0.26381735 -0.43730287  0.78778283
  0.81542328  0.05514937  0.63568716  0.89715677 -0.9454425   0.23477427
 -0.32827003 -0.46293206  0.83249043  0.73494442  0.52054569 -0.22918851]
[-0.22867978 -0.71505866 -0.89780067  0.94618669  0.24372815 -0.3755566
  0.46061833  0.68478657  0.42379643  0.57372262  0.81152198 -0.05243892
  0.41652894  0.28744806 -0.94807911  0.2001131   0.88429117 -0.81497529
  0.3304732  -0.87301343 -0.44303464  0.91001462 -0.93877945 -0.2447422
  0.14045922 -0.99350989  0.35672738  0.59255937  0.38024534  0.60753492]
[ 0.62461597  0.4436885  -0.50778045  0.0939013   0.97955913 -0.96363373
  0.24308509  0.57810598 -0.00488472 -0.37315332 -0.79434312 -0.37645412
 -0.85563178 -0.50274912 -0.56006349  0.35548249  0.03163713 -0.69104317
  0.84916839  0.54888363  0.49214004 -0.15504049 -0.3986175   0.67619389
  0.31652883  0.82681536  0.48051599 -0.44096128 -0.23648509 -0.81329423]
[ 0.74980686 -0.83870107  0.77887181  0.90813187  0.99060795 -0.34937
 -0.87461844 -0.80709772 -0.57797657 -0.83160116 -0.6370647  -0.35683986
 -0.622302    0.235559   -0.95774251 -0.22962381 -0.6750489  -0.12913376
  0.4204419  -0.36644493  0.16275192  0.45072659 -0.5004847   0.76586704
  0.84836336  0.06609473  0.84713234  0.05857406  0.18597683  0.62537028]
[ 0.37051948 -0.55561762 -0.00349543  0.92658336  0.04446034  0.74115305
 -0.63855544  0.25427792  0.13709141  0.47819351  0.39214354 -0.00200832
 -0.70035125  0.53412673 -0.66971042  0.94717355  0.4972376   0.12021605
  0.71001702  0.95060961  0.67913101 -0.17104011  0.47622942 -0.25514176
 -0.31263339  0.74989309 -0.0414976  -0.21362807  0.89622992 -0.927317  ]
[ 0.11648462  0.56795844  0.84836202 -0.02934182 -0.75950238 -0.12989498
 -0.57911387  0.09636609  0.38441131  0.90804425  0.18158017  0.09595986
  0.80077926 -0.46489312  0.16455809  0.28665807  0.67486741  0.75607165
 -0.69620335 -0.40556471 -0.54029025  0.08772576  0.44764938 -0.4316849
  0.55274207 -0.70551515 -0.11187217  0.3671417   0.70222001  0.88395364]
[-0.52325092 -0.45343786  0.24970977 -0.98875541  0.19460861 -0.23623735
 -0.17460775  0.8053632   0.39567503 -0.31399934 -0.00865937  0.69246751
 -0.31926122 -0.58824569  0.08675628  0.78568221 -0.17981183 -0.30545242
  0.94438781  0.5123801  -0.28227735  0.58881097 -0.74389301  0.27961549
 -0.38274132  1.01161002 -0.62320968  0.10066456 -0.61302269 -0.04347741]
[ 0.98326491 -0.64794074 -0.76799455  0.1836485   0.091186   -0.70963543
  0.97639736 -0.52776904 -0.55265812 -0.62465423  0.46194444  0.21552797
 -0.68233153  0.34500482 -0.22592653  0.2562195  -0.54611192 -0.78947752
  0.44672401 -0.71359121 -0.41458901  0.73028897  0.24258923 -0.92585236
  0.84254646 -0.45241723 -0.66169278  0.29630048 -0.89599784  0.24405403]
[-0.7238282  -0.14300289  0.77758906  0.36587724 -0.06387397 -0.30885026
  0.14018856 -0.56493414  0.86230118 -0.22304771 -0.30411216 -0.29543699
 -0.70842643  0.27947418  0.95897231 -0.98713955 -0.08753278 -0.55683801
 -0.22728396 -0.83894511  1.00025703  0.96183598  0.0497977   0.17335414
  0.86079522 -0.27716466  0.87827885  0.83449849 -0.19214511  0.46092496]
[-0.76144231 -0.5252394  -0.6550326   0.0666812  -0.15851835  0.47188096
 -0.00968454  0.16301077 -0.09982014  0.05220561  0.51216451 -0.76106796
  0.32677371 -0.80554871 -0.09796102  0.40220564 -0.08035273  0.72129368
  0.31534688 -0.68281832  0.22676674  0.52375725  0.08561815 -0.24509442
 -0.92743936  0.42954883 -0.51447454  0.66909405  0.5991509   0.91022813]
[-0.00551631  0.69227297 -0.19209182 -0.51159005  0.68462933 -0.56566482
  0.8970192   0.45921017  0.20838861  0.6488536  -0.60869906  0.50314847
  0.86248839  0.99917448  0.75548371  0.68111069  0.26264756  0.23862381
  0.23709108  0.66739809  0.67154367 -0.81167615  0.40303414  0.25443671
 -0.18735566  0.93645366 -0.92088745  0.57912155  0.29619802 -0.14587608]
[-0.56305118  0.36700252  0.06044789  0.93529803 -0.00882151 -0.1603357
 -0.91504392  0.55843445 -0.67832741  0.39622458  0.26774682 -0.31653854
 -0.64405205  0.19014967  0.4895255   0.4489273  -0.9326946   0.21387309
  0.45307056  0.61361732 -0.33370021  0.14677379  0.54577159 -0.90348938
  0.95333848  0.76616531 -0.99525326  0.58578962 -0.25126621  0.5836638 ]
[ 0.71123373 -0.97153257 -0.33443278  0.90647024  0.77007853  0.51966685
  0.32935175  0.85337392 -0.09891565  0.14593638  0.0475392   0.34337994
 -0.32648001 -0.45922263 -0.71669563  0.03299992 -0.05396172 -0.18008217
 -0.75578305  0.57440039 -0.04025121  0.93265104 -0.61973872 -0.78405453
  0.51035334  0.00694001  0.22825042 -0.08843154  0.44985704  0.3478625 ]
[ 0.21958858  0.87090535  0.49954565  0.95505919  0.87967012  0.14984917
  0.25899352  0.73057799 -0.03878951 -0.43307631  0.38819733  0.20099937
 -0.34687897  0.41576597 -0.50504389  0.82015439  0.75152176  0.09319579
 -0.17943067  0.40022937  0.96990741  0.28161649  0.60859961 -0.29268397
 -0.8492314   0.28512699  0.23706183 -0.5734112   0.49062942  0.84387944]
[-0.34962206  0.16649404  0.54590594 -0.49711614 -0.91098158 -0.91401657
 -0.73152296 -0.25316558 -0.90312304 -0.25005535  0.53622085  0.19899188
 -0.13983877 -0.04542772  0.15316378 -0.49549012  0.31746717  0.57496213
 -0.35741531 -0.3859433   0.20892681  0.58652459  0.91376848 -0.08565424
 -0.57816341  0.61721793  0.64312694 -0.54677909 -0.57998913 -0.4716546 ]
[ 0.31382326 -0.31313533  0.94166666 -0.3938724   0.38265916  0.84982598
 -0.26669393  0.38170159 -0.69978227  0.19140027  0.33998941 -0.33112585
  0.02901748  0.32605759  0.78534408 -0.8101539  -0.0177929  -0.6914953
  0.90371738  0.80760972 -0.04364696  0.14533865 -0.36323665 -0.71670552
  0.869773    0.3453303   0.24293601 -0.19926381  0.79663977 -0.69445153]
[-0.4644966  -0.95171944 -0.4350402   0.60624612 -0.16442253 -0.19585576
  0.11985494 -0.73282173 -0.97956491  0.67350041 -0.86811362  0.48793971
 -0.6861913   0.28480435 -0.50060132  0.6551158   0.86510509  0.74936441
  0.04022721  0.61201293  0.73105501 -0.34667298  0.04792015  0.09231199
  0.34051036 -0.14457201  0.71912006 -0.98172952 -0.28690689 -0.64159164]
[-0.58578277  0.20457916 -0.25183652  0.66708958 -0.53201942 -0.56021466
  0.00376588 -0.44334777  0.46429456  0.91045833 -0.39267173 -0.76281034
  0.70664419 -0.78190498  0.45815686 -0.52875859 -0.13160675  0.24154957
  0.2247949  -0.83361314 -0.45880366 -0.69663699  0.66923463  0.66620986
  0.81620489 -0.39671796 -0.67525968  0.70714584 -0.02480316  0.98169256]
[ 0.30938781  0.24935283 -0.48100524 -0.62357356 -0.32961369  0.44159909
  0.37641651  0.02694261  0.79347745  0.92095287  0.6518977   0.99434129
  0.49981795  0.72917608  0.984786   -0.21989876  0.33079717 -0.22470554
 -0.84152945 -0.70555528 -0.8798428   0.85776388  0.94156095 -0.16958612
  0.09672544 -0.77043449  0.10564337 -0.42845816 -0.18693696  0.78536273]
[-0.50186171 -0.9204981   0.16459727 -0.38187038 -0.71618984  0.0158664
 -0.58682196 -0.43636061 -0.19549414  0.61016459 -0.44536598 -0.76942214
 -0.96181574 -0.29713377 -0.92291818 -0.36543021  0.60963049  0.98101801
  0.95264434 -0.2497742   0.96323728 -0.95138593  0.96375186 -0.42199208
  0.4901796  -0.2932321  -0.39732211 -0.91417173  0.71556549  0.18713983]
[-0.77216693 -0.27301999  0.71990933 -0.62556868  0.12214134  0.70307841
  0.54415126  0.12660169  0.05433063 -0.00600447  0.83541332 -0.16183119
  0.73141568 -0.37333695  0.89504519  0.83786988 -0.64442011 -0.90052
  0.94355608  0.91997018 -0.73162121  0.76723764 -0.32788535 -0.00794045
  0.69829519  1.10510784 -0.96418035  0.08780642 -0.62843498 -0.52285043]
[ 0.42986182  0.72926146 -0.42679967  0.98017406  0.41011872 -0.39476867
  0.18278597  0.27702748 -0.68908597  0.97824195  0.98882101  0.42895173
  0.99493661 -0.49737544  0.2279914   0.85988447 -0.73631749 -0.48324666
 -0.88776132 -0.20261904 -0.66603995  1.01334236  0.15893929  0.21903971
  0.61367601 -0.82893089  0.47781437  0.93987853 -0.64662526  0.57677472]
[ 0.87060269 -0.36786825  0.61437435 -0.37573233 -0.00773139 -0.38409371
 -0.69475198 -0.58363054 -0.20896932 -0.07934747  0.15120643  0.37824429
 -0.428617   -0.20337444 -0.29748545  0.28489026 -0.06711715 -0.5918014
 -0.59862028 -0.33009352  0.42198311  0.15780305 -0.29091498 -0.54995988
  0.43143908  0.01858534 -0.65894202 -0.91408668  0.03746677  0.94451733]
[-0.85120206  0.25709968  0.48966769  0.87639119  0.67964076 -0.92354581
 -0.4520962   0.95441323 -0.33377455  0.77344006  0.26207502  0.93672317
 -0.66351287 -0.33532888 -0.71690272  0.11934275 -0.20424552  0.05970255
  0.25149934 -0.4303826   0.15889814  0.37705986  0.22745497  0.17810112
  0.44151471  0.9783591   0.68470091 -0.14735576  0.24508079 -0.64207927]
[-0.65039673 -0.58729258  0.42773101  0.79341661 -0.90819257 -0.24720952
 -0.69579103 -0.83168477 -0.69522839 -0.37078676  0.25434341 -0.76034469
 -0.53831282 -0.36319571  0.13889598  0.60423376  0.13363307 -0.93362841
  0.81522769  0.72312163 -0.83512377 -0.11661328 -0.67489744 -0.4276402
  0.45397995  0.01231582 -0.29296369 -0.01519664  0.40604416  0.51975979]
[-0.62002659  0.64105285 -0.29277191 -0.8029544   0.73537606 -0.43484327
 -0.44522568 -0.78786016 -0.10448884  0.04157217 -0.53105884  0.12848103
 -0.18798513  0.54716994  0.4024323  -0.97483599 -0.79415527  0.33590421
 -0.45778025  0.91129423 -0.27364128  0.0084462   0.08850468  0.99804261
 -0.80572247  0.87093067 -0.45421604 -0.13185782  0.18493427  0.22693411]
[-0.84212235  0.88873959 -0.54453652  0.97136417  0.90553825  0.44493425
 -0.69610002 -0.43379563 -0.41563991 -0.53433618 -0.4053756  -0.8898901
  0.45750441  0.15786148  0.46674862  0.49769964  0.35354264 -0.27852793
 -0.59267113 -0.56190844 -0.96562847  0.53529141  0.7160095  -0.93767576
  0.64159397  0.60325716  0.50444676 -0.59768565  0.33053804 -0.67761226]
[-0.11844308  0.00732502  0.80430112 -0.54237814 -0.37418823 -0.73116282
  0.71536506 -0.81782369  0.18453301 -0.26370441 -0.79242407 -0.37526531
  0.46127529  0.05635337 -0.91906995  0.20970306 -0.03442272  0.00954041
 -0.39879362 -0.50489604 -0.73569352  0.06449869  0.76198899  0.06655112
  0.52382087  0.44359998  0.94401013 -0.41589851  0.56577316  0.51161679]
[ 0.62597244  0.96160118 -0.48717548  0.58192826 -0.31220855 -0.21512395
  0.66553299 -0.45242798 -0.10059002 -0.55008107 -0.91487277  0.02246633
 -0.04145413 -0.88502594  0.03434838  0.11512753 -0.14528321 -0.63625761
 -0.03542836 -0.47651683 -0.63722443 -0.03592736  0.63521062  0.01753063
  0.81848798 -0.80711873 -0.52786264 -0.26228102 -0.90090716 -0.96091441]
[ 0.31435837 -0.95198501 -0.80439051  0.90607072 -0.7774375   0.43834074
  0.33640007  0.46074345 -0.57156836  0.9102429   0.28912323 -0.64230875
 -0.12939962 -0.19592967  0.84698612 -0.6160751   0.14168723  0.215791
  0.22537954  0.97352601  0.64796184  0.54734918  0.0288412   0.29192714
 -0.33263357  0.46993173 -0.59979808 -0.79912342 -0.02431181 -0.91213606]
[-0.04411087 -0.19696069 -0.47692103  0.1204413  -0.21835296  0.8321811
  0.33629051 -0.9658753   0.23686223 -0.53721238 -0.53527195  0.60558619
 -0.50380017  0.30254914 -0.86360448 -0.61807682  0.76935034  0.50137504
  0.93611133  0.60133703  0.09043661  0.18552066  0.63797888  0.2218871
 -0.94538323 -0.69520696 -0.82420519 -0.18941784 -0.13364142  0.50371635]
[ 0.06527792 -0.58132457  0.43196413 -0.15341566  0.31604765 -0.14730585
 -0.92167982 -0.75785645 -0.03868203 -0.28486275  0.85614584  0.41929077
  0.15660035  0.88059392 -0.56565533 -0.00484609  0.54933991 -0.96498498
 -0.26084763  0.6170147  -0.5760995  -0.79525365 -0.53761802 -0.12472737
  0.10477197  0.75520325  0.15899643 -0.1047453  -0.72515489 -0.07573403]
[ 0.51832181 -0.36858604 -0.01839537 -0.81616064  0.94315515  0.35862054
 -0.02320537  0.31841246 -0.27652955  0.84231549  0.02315761 -0.83331798
 -0.00655355 -0.64485158  0.63064124  0.36529402  0.29405995  0.05934162
 -0.43457959 -0.34539166  0.90458421  0.69019538  0.78841142 -0.69580048
  0.44540852 -0.07565934 -0.0283353   0.8213472  -0.97197514 -0.09825072]
[-0.50524783  0.57158394  0.22761615 -0.68377751  0.88059923 -0.11518421
  0.05885687 -0.65944196  0.4838045   0.04615926  0.86243157  0.21793979
 -0.39303171  0.10774139  0.46236513 -0.8194365   0.42273899  0.84813092
  0.13001131  0.64063025 -0.47141132  0.21304713 -0.18322637 -0.53149475
  0.63853224 -0.8692423   0.22174718  0.72993063 -0.63658084  0.07979686]
[ 0.35992908  0.69387785  0.57466386 -0.59175538  0.75124411  0.28444864
  0.30096005  0.21728253  0.09327143  0.39280654 -0.07444388 -0.62192949
  0.42238847  0.8703934  -0.10526717 -0.70288497  0.31774856  0.02232368
  0.36902783  0.574182    0.06917906 -0.7848482   0.45034838 -0.05143982
  0.02624385 -0.90221435 -0.64821034 -0.15629102 -0.42527706  0.56065387]
[-0.33465075 -0.59420083  0.90914895 -0.93352748 -0.86818572  0.89492227
  0.17474029  0.74079294 -0.72122169  0.87624002  0.55558785 -0.38402799
 -0.87936817  0.71099581 -0.32872718  0.298929   -0.67970571  0.72996652
  0.07600605 -0.1840559   0.92337484  0.15928989  0.57354302  0.3875263
 -0.79357283 -0.32505752 -0.91894356  0.62881757 -0.2998067   0.85339005]
[-0.90864356 -0.34473299 -0.11987968 -0.19112171 -0.76470133 -0.96448001
 -0.01086899  0.55500303  0.26377082 -0.65263072  0.10856493  0.79379706
 -0.43507511  0.35768728  0.22231341 -0.40487776  0.73985782  0.27576093
 -0.30599368 -0.88680065  0.0877413  -0.05813349  0.93717678 -0.41281369
  0.29871024  0.45321014 -0.22548491  0.36775661 -0.67295772  0.95980342]
[ 0.91244636 -0.15806102 -0.66166727 -0.56621165  0.12484874 -0.02976549
 -0.03495782 -0.50506327 -0.90196514  0.71673682  1.08901706 -0.31668294
  0.90655298 -0.13657055  0.09620142 -0.68617714  0.45210354 -0.74438501
 -0.72983423  0.0378895   0.02124883 -0.54188724 -0.23202324  0.1464758
  0.5717549   0.53832679  0.56392147 -0.94051028  0.2138246  -0.6280389 ]
[-0.30585347  0.10344615 -0.69239418 -0.35522652  0.82175322  0.48573545
 -0.01662893  0.23942877 -0.19822022  0.08682176 -0.25858631 -0.32103517
 -0.58261112  1.12196467  0.17006817  0.98105153 -0.50437323  0.92793366
 -0.30160104 -0.42045875 -0.43680542 -0.11818309 -0.05878918 -0.60550572
 -0.81539846 -0.47981326  0.96799382 -1.01330889 -0.1770009   0.45229011]
[ 0.30714981  0.37874983 -0.46430276 -0.58838046  0.4539318  -0.37034758
  0.18743443 -0.83095818  0.13257257 -0.6310028   0.36885991 -0.95411734
  0.92825177  0.55921877  0.32451709  0.24999175 -0.92406085 -0.15761431
 -0.72768133  1.01337957 -0.16249084 -0.27779074  0.86084097 -0.17402882
 -0.22890371 -0.58823976 -0.95325327  0.42985753 -0.97091716  0.83553872]
[ 0.91592598  0.57980372 -0.70366599 -0.20051268 -0.55093354  0.86541174
 -0.70879129  0.40819472  0.85318324  0.82558712  0.41412372  0.00944942
 -0.28745583 -0.18090266 -0.28902351 -0.98410122  0.9646711  -0.13149668
 -0.6501569  -0.07594212  0.17567508 -0.65717175 -0.85145763 -0.13121575
 -1.06590565  1.01976313 -0.74152645 -0.45837163  0.52891208 -0.07502726]
[ 0.89945321  0.81529742  0.46069802  0.92128073 -0.1514099   0.96809104
  0.52020371  0.29996812 -0.54330045  0.33852203 -0.42189985  0.52829692
 -0.30618636  0.12883015  0.50409329 -0.93949254  0.78748993 -0.41603668
 -0.63673791 -0.7217135   0.57621938 -0.03042343 -0.14030539 -0.62834765
  0.75792714  0.12900406 -0.64207892  0.71405794  0.69658974  0.14199436]
[ 0.14084033 -0.86275825  0.76686216  0.16979244  0.46889985  0.52122703
  0.09188841 -0.16327575 -0.05703945 -0.33839968  0.37009634 -0.34709801
 -0.26910564  0.27322647 -0.4671684  -0.09303828  1.06830649 -0.05098385
 -0.14360385  0.38025147  0.39980789  0.86182224 -0.30927008 -0.23791174
 -0.30685165  0.00220012 -0.02321866  0.84662448  0.40437552  0.43715726]
[-0.63322139 -0.4728791  -0.93173038 -0.30846854 -0.22946776  0.44965214
  0.50708906 -0.35731096 -0.18583405 -0.33112668 -1.08345051  0.53266351
  0.4725806   0.9554542  -0.08228641 -0.95067783  0.2691966  -1.03023833
  0.08387671  0.8237715   0.88428207  0.24202669  0.3838108   0.06172048
 -0.5583926   0.0437264  -0.51876    -0.82911228  0.83637444 -0.35899019]
[-0.0652348  -0.38474302 -0.26500322 -0.49081278 -0.54538162 -0.47098648
 -0.62468365  0.17707389 -0.34582384  0.32917235 -0.4390219   0.61877369
 -0.03217625  0.90927473 -0.82493787 -0.84007317  0.29581461  0.46187976
 -0.2222705   0.48764585  0.83673318  0.12754446  0.19328463  0.61700684
  0.40233723  0.13118838  0.32979271  0.26366033  0.41891675 -0.58188413]
[-0.87683871 -0.28098873  0.05507207 -0.49278098 -0.98662552 -0.96994526
  0.60467402 -0.3178246  -0.09755796 -0.25712328  0.64968767  0.26625471
 -0.78189276 -0.66270666  0.54173789  0.1912284   0.90698291 -0.2354675
  0.04648361  0.53490786 -0.57925707  0.16429151  0.92402374 -0.59686519
  0.5510044  -0.29097131 -0.1414688  -0.74977133  0.47956528  0.80458445]
[ 0.61602645 -0.90025678 -0.31346256  0.79622538 -0.79543424 -0.17613633
  0.22220772 -0.04842718  0.1863682   0.39980416 -0.61898175  0.73357501
 -0.46114501  0.00961789  0.35640804 -0.70599244  0.28739934 -0.31997927
  0.22026097 -0.12158263 -0.72152192 -0.08581808  0.32999104  0.77668267
  0.06819511  0.07838484  0.65552471  0.34680223  0.77266749 -0.37312698]
[ 0.15851067 -0.22981911 -0.54590792  0.10632926 -0.80406845  0.13464394
 -0.35664728  1.02275164 -0.10043672 -1.02594824  0.56763602  0.82638352
  0.46671639  0.92741144  0.88059976  0.53807916 -0.78299415  0.74671564
 -0.48523237 -0.23865673  0.23801534 -0.43247316  0.41413837 -0.44506827
 -1.07235148 -0.50436704  0.59986476 -0.42553311  0.32421055 -0.04344165]
[-0.78795379  0.58039021 -0.62012029  0.02527059 -0.40576682  0.22813613
 -0.57799403 -0.51333437  0.5387892  -0.03008046 -0.86917841 -0.89410326
 -0.81590258 -0.26128433  0.36454996  0.14304484 -0.3391589   0.28204184
 -0.23676724 -0.97447855  0.02792153 -0.1891943   0.31087157  0.86409693
  0.02657432 -0.77280426  0.23607125  0.57685249  0.68800577 -0.08488707]
[-0.65411007  0.94001218 -0.55267042  0.86878351 -0.98105063  0.09399082
 -0.13757087 -0.26406484 -0.11147117 -0.44105807 -0.05252297  0.26215034
  0.70066147 -0.17562372  0.64149132  0.66248012  0.16798125  0.66530289
 -0.14269943 -0.78429586 -0.86855184 -0.19509414  0.20492401  0.47087087
 -0.20640788  0.75339206 -0.01188869  0.10738219  0.00103575 -0.71031915]
[ 0.81901559 -0.88954012 -0.2869999  -0.43036535  0.79688237  0.97299752
 -0.85124789  0.15885348  0.86864783  0.54046453  0.79296056 -0.93414712
  0.04906652  0.11707811  0.02877178 -0.74057717  0.0831962  -0.81686714
 -0.28407207 -0.88251116 -0.01024898 -0.82966001 -0.95567141  0.70726132
  0.79567661  0.02866237  0.4520645  -0.55475698  0.71311518  0.47707936]
[ 0.27264281  0.33954242  0.20437724  0.19203384  0.09595313 -0.10198682
 -0.80871017  0.94416924  0.03270097 -0.37041185  0.80783417  0.06686332
  0.87925247 -0.58898503 -0.31405637 -0.29448771  0.45200037  0.51993491
 -0.00569737  0.41851787  0.90916805 -0.55278377 -0.89112945 -0.89275513
  0.68851359  0.5547449   0.53756673 -0.35100011  0.6752231  -0.43064546]
[-0.38804645 -0.41526105  0.62743757  0.06046091  0.06088449 -0.66290972
 -0.56107854 -0.8074152  -0.81383964 -1.01018599  0.48245558 -0.44848506
 -0.23320565  0.38130196 -0.90351965  0.94056296  0.99542346 -0.00986154
  0.91135829 -0.93357313 -0.17165554  0.09875149  0.1778923   0.72516986
 -0.97727712 -0.71390876 -0.72527245 -0.91907693 -0.38735452  0.03006343]
[-0.03265723 -0.73225719 -0.11312506  0.53393955  0.83363802 -0.55279652
  0.1320153  -0.63582592  0.92983667 -0.62081333 -0.46908715  0.45444637
 -0.93791393  0.78647103 -0.32125966 -0.89625059  0.19742536 -0.1116
 -0.96762241  0.46066583  0.84311484 -0.28859656  0.67760152 -0.75117132
  0.86720237  0.80238965  0.54366015  0.11744982  0.66932959 -0.71838342]
[ 0.0675741   0.69554551  0.05240745  0.91578535 -0.27616617 -0.2693135
  0.21850129 -0.84473894  0.3838041  -0.13513638  0.95890108  0.34435052
 -0.89760509  0.08567688  0.82196268 -0.49142025 -0.81446319 -0.35580897
  0.96652366  0.40760949 -0.54966204  0.47364258 -0.00589379  0.76769066
 -0.68608422  0.54222549  0.08003389 -0.88454662  0.64298958  0.90662514]
[-0.98714874 -0.67196548 -0.64589755  0.16480411 -0.23908743  0.5018248
 -0.07794128  0.59635971  0.29153038 -0.75525268 -0.57972482  0.2044302
  0.97776179  0.36427392  0.91280674  0.84652666  0.97451603  0.21920432
  0.91257806 -0.31963273  0.46041843 -0.68753141 -0.6396837  -0.8674327
  0.87240221 -0.38717779  0.48544796  0.53532017  0.896861   -0.60503576]
[-0.93521263 -0.6099846  -0.52342696 -0.09080221  0.08474327  0.90541769
  0.25335515 -0.79355434  0.5562097  -0.49901569 -0.39345488 -0.56203537
  0.61571472  0.42458895 -0.14976314  0.31479205  0.30645605 -0.01191353
  0.99227801 -0.95512243 -0.28028876  0.99945361 -0.04601217  0.71481476
 -0.17997402  0.4987487  -0.12771067 -0.30707985 -0.70660243  0.42141029]
[-0.28678826 -0.8960269   0.79250534 -0.78196475 -0.92868728  0.34489925
 -0.44860559 -0.96736404  0.87534447  0.43981563 -0.24097084 -0.82655838
  0.14949835  0.31682209 -0.83535659 -0.67365961  0.29675818  0.1200452
 -0.19766915 -0.96536048  0.89293529  0.7524866  -0.12091973  0.27925129
 -0.23962965 -0.01373167  0.35812191  0.9449857   0.32621278 -0.17145889]
[ 0.61524596 -0.78364659  0.76055164 -0.59220448  0.31268369 -0.35893784
  0.19531194  0.96344682 -0.67368743  0.22806008 -0.08693298 -0.56853568
  0.11866404 -0.16410077 -0.24194856  0.66158338 -0.10252781  0.32142138
 -0.67139696 -0.00582288  0.84663572  0.28846853 -0.03098584 -0.57186869
 -0.94004506  0.15489823 -0.47097085 -0.28765594 -0.67911179  0.32325609]
[-0.66204356  0.71839906  0.01875911 -0.96777078 -0.7440903  -0.5411216
  0.57167488  0.43975771 -0.4499643   0.84184857 -0.67548001  0.3007236
  0.19853144  0.70828747  0.56439972  0.3605512  -0.51974078 -0.28768591
 -0.69085268  0.35170483  0.24503849 -0.72359403  0.30332212 -0.93244356
 -0.17939482 -0.90853037  0.07374218 -0.65203888 -0.78749692 -0.41801746]
[-5.60013557e-01 -7.48936576e-01  1.63490786e-01  3.22642463e-01
  1.47338703e-01 -3.34493489e-02  6.35204409e-01 -8.94327971e-01
  7.76133803e-01 -8.78960331e-01 -9.94956647e-02 -4.18041825e-01
  8.97866563e-01  1.39542860e-01 -8.95914623e-01  8.73058308e-01
  2.53366684e-04  8.15743668e-01  2.17272261e-01 -5.13019002e-01
 -3.69376907e-01 -2.44025538e-01  8.48970509e-01  8.23438571e-01
 -7.70960129e-01  3.25902938e-01  8.53452962e-01 -5.34837883e-01
 -1.40145095e-03 -5.57107225e-01]
[-0.62573449  0.30049482  0.90125838 -0.26399176 -0.48152813 -0.45339916
 -0.75452628  0.88291413  0.36173238 -0.33516071  0.61976714  0.12850948
 -0.74896386 -0.17452141 -0.85822249  0.04674809  0.87680685 -0.77755193
 -0.71456063  0.81844403 -0.32015685 -0.13171526 -0.72126052  0.99067421
 -0.99630146  0.39178915 -0.14918256  0.97014357  0.03870631  0.06667095]
[-0.1453048   0.29032322 -0.33023509 -0.00732121 -0.69844462 -0.52230106
 -0.96520242 -0.75457907  0.41120828 -1.00832196 -0.79120588  0.12653924
  0.66970458 -0.30405555  0.83927723 -0.60331524 -0.20771625 -0.50143452
 -0.990387    0.34023937 -0.47483678  0.02679223  0.68940261 -0.10776808
 -0.5179257  -0.31443442  0.47223754  0.78688927 -0.24714848 -0.95154243]
[ 0.56597303 -0.91154915  0.89377011 -0.7142309  -0.77046555 -0.91797863
  0.48567635 -0.48232946  0.19044816 -0.86880018  0.96563833  0.59254742
  0.85361002 -0.10006653  0.45247008 -0.65696815 -0.23517313 -0.26865007
 -0.78700847 -0.49946266  0.92851711 -0.73900566  0.59397262  0.4146785
  0.5845081   0.10636626 -0.87036681 -0.69607271  0.89612759 -0.14591362]
[ 0.4163116   0.24604017 -0.36195352  0.74604564 -0.49008645 -0.62430759
 -0.92388342  0.4463932  -0.06571775  0.28394946 -0.50766315 -0.40800592
 -0.14232903  0.26817199  0.22666546 -1.02451653  0.3156784   0.36812976
 -0.74238744  0.81266402  0.35918586 -0.16891332 -0.44095416 -0.93292252
 -0.65521612 -0.28347455  0.36030883 -0.17684722  0.51365438  0.89361421]
[ 9.23431303e-01  1.67575743e-01 -6.43016024e-01  1.13852201e+00
  1.10782012e+00  8.50277274e-04  9.05927869e-01  1.77734330e-01
  2.18647006e-01  6.36472075e-02 -1.32953495e-02 -5.56913100e-01
 -9.90460479e-01  1.02307409e+00 -3.10832188e-01  2.63209765e-01
  6.76154605e-02 -7.00361961e-01 -1.61830514e-01 -6.73863493e-01
  5.45188522e-01  3.35197035e-01  2.16647646e-01 -8.79118628e-01
  5.28332600e-01  5.77225435e-01 -7.46309836e-01 -6.13638332e-01
  7.64886661e-01 -6.42086024e-01]
[ 1.18255832  0.16731727  0.72548114  0.28022908  0.27440413 -0.57126517
 -0.09163116 -0.18895471  0.01335543  0.7908717  -0.20159644  0.02641613
  0.70419044  0.97420809 -0.87788774  0.55238212  0.56307825  0.78396012
  0.2898424   0.03498083 -0.23950093  0.9663194  -0.94002783  0.28479256
  0.82062353 -0.03295485 -1.08135996 -1.03766019 -0.09774223 -0.40797662]
[-0.02020566  0.11710444 -0.23249515  1.29712524  0.13287582 -0.36461419
  0.38923943 -0.01322686  0.50560324  0.71012651  0.6908916   0.20393115
  0.6536703   0.26018189 -0.81751974  0.34751789  0.01192995  0.77940434
  0.56164193 -0.59733637  0.89214973  1.28337539 -0.44469789  0.6866249
  0.4336086   0.38983925  0.6470249   0.13349216 -0.66953599 -0.77612315]
[-0.4923746   0.11795073 -0.52174967  0.75673547 -0.01811312  0.7326803
 -0.63519052  0.91526365 -0.41155784  0.84582559  0.24122347 -0.86071512
 -0.86854741 -0.71647297 -0.653586   -0.83664279 -0.02849698 -0.64911913
 -0.02341782 -0.63658688 -0.09188982  0.73042561 -0.28433181 -0.56932755
  0.15507411  1.33206394 -0.17253726  0.3609832  -0.38867913 -0.3946831 ]
[-0.58333029 -0.50008163  0.10337839  0.87402779  1.37345186  0.19932127
  0.47270104  0.97860592  1.00381816 -0.67122999 -0.01888042 -0.39349652
  0.711643   -0.28433563 -0.20278107 -0.28663535 -0.5084753  -0.74380034
  0.35160688  0.9067922   1.24240615  0.78661133 -0.24109739 -0.79217262
 -0.30278431  1.59769446  0.91903435 -0.07526422 -0.47055887  0.0456937 ]
[ 1.16425905e+00 -4.94279812e-01  1.93726384e-01  1.40271870e+00
  5.62785977e-01  2.35925134e-02  3.20553396e-02  6.28181026e-01
 -5.65023128e-01 -5.08330440e-03  1.53703112e-01  4.62191406e-01
 -1.04715523e-01  2.87894055e-01 -3.41548549e-01 -9.57766487e-01
 -8.44052944e-01 -1.28518633e+00 -8.59290440e-01  4.77910377e-01
 -1.09819308e-01  8.88933744e-01  3.06986981e-01  7.74244882e-04
 -8.55503640e-01 -1.46366724e-01 -1.02726850e-01 -3.58517284e-01
 -6.44884537e-01  3.34201525e-01]
[-0.11281299  0.59215168  0.2873041  -0.17074034  0.40966603 -0.12237745
 -0.28068976  0.27358364 -0.40152342  1.06083785 -0.59205187 -0.23775491
 -0.23734571 -0.09222375  0.49564793 -0.10490422 -0.10194369 -0.18046028
 -0.70596331  0.02249024  0.65626925 -0.0613382  -0.0522816  -0.64717742
 -0.24213153  1.27801114 -0.56048701 -0.22973037 -0.68011004  0.66721143]
[ 0.74981595 -0.46610081 -1.04850273  0.74406313  0.47822186  0.0067143
  0.37890212 -0.38831655  0.28783714  0.83926744  0.19582593  0.0311651
 -0.25691026  0.13664394  0.25598155 -0.62482711  0.24644146 -0.53822628
 -1.30294124  0.1773764   0.80808038 -0.16678548 -0.43147207 -0.41396638
 -0.90227666  1.32341512 -0.30873625  0.55133653  0.44154715 -0.09212137]
[ 0.03653254  0.8784099  -0.21210732  0.09434657  0.08066225  0.69417198
  0.00950954  1.11342733  0.78952001  0.17409295 -0.38407834 -0.12060274
 -0.89166222  0.7630714   0.20768832 -0.85967672  0.99141492 -1.09924418
  0.25332992 -0.4773019  -0.33529824  0.89457088  0.18447915  0.27866506
 -0.59898426  1.3701505   0.65918558 -0.00495206 -0.09898087 -0.20717168]
[-0.59828477  0.6479324   0.03287547  1.32776238 -0.60014395  0.04354843
  0.43298529  0.45100215 -0.02290987 -0.90545287 -0.71328175  0.97715597
 -0.21437069  0.7767583   0.90157082 -0.90031585  0.00303358  0.30220596
  0.5086318   0.52869516 -0.28844609 -0.29097426 -1.04656593 -0.52271552
 -0.24471398  0.70843614  0.82943443  1.03894339 -0.02385497  0.59221008]
[ 1.13983386 -0.27908632  0.67334048  1.2203687  -0.63833518 -0.4936588
  0.3192372  -0.35869812  0.34270226  0.74116298 -0.54577977 -0.32763909
  0.69576009  0.90941523 -0.70270386  0.24338207  0.36503325 -0.9113228
  0.16639587  0.67003022  0.51210605  1.34097544  0.18917052  0.41075089
 -0.70907027 -0.13530223 -0.18428077  0.23540957  0.72811519 -0.03430507]
[-0.14763117 -0.75449255  0.19717662 -0.18575163  0.58260561 -0.98511997
  0.01168885 -0.68772206  1.10498595 -0.76599145  0.48471171  0.5380611
 -0.00263472 -0.13952767 -0.77933763 -1.14258426  0.36105091 -0.45154308
 -0.10150922 -0.62003815  0.60793668  0.60696344 -0.18766313  0.7582225
  0.31302875  0.35593211 -0.67625868  0.68754572 -1.05717629 -0.38095188]
[ 0.63581144  0.65892347  0.24432285 -0.3467076  -0.34181005  0.23155779
 -0.79764312  0.83170184  1.19251133 -0.61282565 -0.59581096  0.51410402
 -0.65090128  0.01567845 -0.70047679  0.87452216  0.91780664 -0.93147603
  0.10398392  0.63002368  0.56497636  0.37666441 -0.30291175  0.90682945
 -0.90058522  0.72985083  0.86220966  0.60373265 -0.11888656 -0.18921003]
[ 0.93739957 -0.52859082 -0.72351763 -0.50223485  0.24835282 -0.30664623
 -0.22440819 -0.44223837 -0.03594416 -0.29629816  0.39734175 -0.86497258
  0.94480346  0.58941313  0.71619719 -0.92873102 -0.17829114 -0.25431217
 -0.14961396 -0.78914278 -0.65726621 -0.45726412 -0.24873418  0.1103549
 -0.99893841 -0.81042132  0.87546784 -0.5262377  -0.3662243  -0.75613199]
[-0.20513795  0.74838813 -0.93783062 -0.43348104  0.66243063 -0.83906619
 -0.54648168  0.91677172  0.27886654 -1.06591651  0.16638812  0.51227835
 -0.73608724 -0.35413242  0.44920513 -0.75020432 -0.72284417 -0.98371302
 -0.56884141  0.13897926 -0.17514363 -0.74858729  0.36561283  0.87608984
 -0.80633013 -0.48335931  0.80244531 -0.30181275 -0.11705224 -0.33558767]
[ 0.69369019  0.06386399  0.22494947 -0.85103768  0.34691989  0.21251704
  0.12715745 -0.88848974  0.60957626 -0.54792108 -0.16268576  0.96138679
 -0.62252046  0.9602741   0.18102199 -0.98025691  0.58158075 -0.0850824
  0.66492564  0.74102339  0.12115399 -0.6665839  -0.65619825  0.87342609
  0.70447924 -0.43046928 -0.96155366  0.39478312  0.32260071  0.21334928]
[ 0.5046104   0.97168735 -0.23953937  0.07477082 -0.49685885  0.24803627
  0.89355973 -0.44831406  0.19233451 -0.04627584 -0.86839336  0.15044299
 -0.09258258  0.68595172  0.86970813 -0.95416745  0.32883496  0.98968713
  0.69613233 -0.53180202 -0.83338104  0.47904809  0.75434    -0.84124121
  0.72778634  0.91161257  0.36272767  0.78773002 -0.56162157 -0.08866728]
[-0.95045635  0.02806269 -0.96387167 -0.39212766 -0.93637972 -0.96382809
  0.0948508  -0.27304188  0.33816016 -0.26614352 -0.42027997  0.69895603
 -0.07483776  0.14886127 -0.92924117  0.24772295 -0.23990138  0.4013162
  0.65861684  0.56553278 -0.83260395 -0.87546207 -0.73155564 -0.84867257
 -0.88205756  0.55885723  0.80119681  0.71340222  0.02938431 -0.61992624]
[-0.46977584  0.43759593 -0.63252379 -0.25367555 -0.00115461  0.62949813
 -0.20989672  0.05033151  0.36497339  0.57372482  0.26315139  0.26939239
 -0.53820233  0.52970319 -0.80478592 -0.46450738 -0.36212276  0.93594565
  0.84861769  0.92807978 -0.95915864  0.79721728  0.19171071  0.18098768
 -0.1820885  -0.23950498 -0.5520693  -0.20395614 -0.27379203 -0.31923534]
[ 0.07796694 -0.17839557  0.73052344  0.77934868  0.49255653  0.27371498
  0.10210576  0.47254073 -0.09700742 -0.91263412 -0.48321723 -0.82096462
 -0.98563435 -0.44206647  0.17882268  0.76996549  0.19094748  0.0940839
 -0.94973674  0.79824723  0.09270412  0.27192162  0.17492831 -0.2641289
  0.59803397  0.57096024  0.75236282 -0.57215236  0.7024738  -0.93081389]
[-0.95301874 -0.6807326  -0.95457182  0.88338362 -0.28617207  0.48689215
  0.65144319  0.50334539 -0.16761506 -0.02822038 -0.05177045  0.74938639
 -0.29018608 -0.29929869 -0.93853323  0.46089996  0.60708056 -0.93276396
 -0.59270204 -0.39415699  0.71597378  0.93394497 -0.74310414  0.83023587
  0.86223037 -0.33215488  0.60955114  0.56139032  0.43057637 -0.31915213]
[-0.73555948 -0.18729395  0.77118655  0.97333707  0.71315069 -0.50312231
  0.7860204  -0.43072783  0.38584905  0.44861874  0.8467915   0.48510007
 -0.68449369 -0.09635054 -0.11945922 -0.73502375 -0.76940366 -0.99475525
 -0.97392661  0.62784279 -0.45291814  0.02873072  0.33285655  0.77383311
  0.92458434 -0.81511816  0.7835346   0.35325438 -0.65343488 -0.23881596]
[ 0.44632807 -0.14954214  0.86552251  0.62563809  0.79576012  0.00787257
  0.72280311 -0.51578481  0.66197222 -0.20201828 -0.11802576 -0.17840103
 -0.86667669 -0.29358265  0.77990869 -0.09053584 -0.21274436 -0.79555857
 -0.56946935 -0.81893535  0.83952739 -0.61118595  0.58338856  0.02353641
  0.23249103  0.1846587  -0.88831585  0.53873338  0.77231089  0.40407452]
[-0.04079471 -0.57275399 -0.71541646 -0.75597041 -0.80897988 -0.12674689
 -0.09673296  0.23975893  0.809741    0.30436193 -0.93390832  0.76283745
 -0.92511002 -0.26750086  0.73632928 -0.87675374  0.65504542  0.27778026
 -0.50307368 -0.59088222 -0.06283148 -0.54896021  0.53076735 -0.0630645
  0.62047701  0.76150864 -0.08786109  0.71028544 -0.56905735 -0.67097968]
[-0.58049843 -0.74744789  0.08631     0.92302381 -0.35730706  0.57281731
  0.10919177 -0.21745724 -0.85060416  0.05734166  0.03678247 -0.74459046
  0.60894746 -0.21805243  0.31170311 -1.080411   -0.07635249  0.76168074
  0.59416308 -0.64672487 -0.1017397  -0.09511576  0.62405028 -0.50525121
 -0.17355298  0.92856072 -0.91096758 -0.36309991  0.0111889   0.66698335]
[ 0.76949071 -0.08448343  0.41671703 -0.22518984 -0.18999212  0.54486718
 -0.37204859 -0.22568408  0.22102482  0.25216218 -0.75570744  0.54223223
  0.62076442 -0.89127139 -0.15714836 -1.22087363  0.66339181  0.04734515
  0.41069133  0.16694867  0.79453069  0.15258452  0.13796526  0.12597955
  0.18933183 -0.39363839 -0.30854772  0.89513753  0.454088   -0.43189755]
[-0.33007298 -0.80187761  0.5957019  -0.73814126  0.82853585 -0.21490011
  0.50096843  0.83696913  0.34656808 -0.39645358  0.15880974 -0.83641045
  0.54711094  0.12279472  0.20514305  0.45267907 -0.21489976 -0.67229862
  0.91898509 -0.6319872  -0.54171091  0.16915146  0.0955008  -0.60829139
 -1.0430316   0.642402   -0.12950446 -0.24872786  0.66067249 -0.80179182]
[-0.34635292 -0.1967277  -0.66197588 -0.17289254  1.18265721  0.53547079
  0.33966268 -0.53669908 -0.26002838  0.5727227  -0.42982478 -0.35375277
 -0.82304731 -0.40869221 -0.5269558  -1.03478308 -0.44255353  0.4213933
  0.09184736  1.0058003   0.72882646  0.59890096  0.03747105  0.55952174
  0.76396111  0.49255077 -1.00551383  0.54997312  0.49489235 -0.0389745 ]
[-0.37827676 -0.95613526 -0.25728084  0.2139327   1.56811578  0.19200619
 -0.36768064  0.11541569  0.48924237  0.88624528 -0.20144962 -0.5051595
 -0.51144072 -0.3564982   0.16487948 -0.55259936  0.36416344  0.58335842
 -0.25926506  0.75453429 -0.72636973  0.99666424  0.51773429  0.21768293
 -0.68244063  1.36412191  0.57830588  0.58818994 -0.43941478  0.35124844]
[ 0.95709798  0.32626963  0.84369547  0.04713106  1.01567279 -0.52808319
  0.4289615   0.13920092  0.31116016  0.06963368  1.06509384  0.42756939
  0.19310283  0.31939398  1.08789502  0.20019687 -0.20465796 -0.62413573
 -0.24862626  0.79621678  0.62676529  0.90924275 -0.9278062  -0.73292648
 -0.47235416  0.41247873  0.55591482 -1.19334001  0.87523858 -0.48633073]
[ 1.20296678  0.33487737  0.1072169   0.54357621  1.07861079 -0.44829006
 -0.08950884  0.51525262  0.15647577  0.20608105  0.42062375 -0.32829658
 -0.14864907 -0.09718835  0.30103316 -1.02116423  0.67449127  0.24780822
  0.99112031  1.1405419  -0.33379223 -0.48142307 -0.73245479 -0.04381682
  0.35590212 -0.28329506  0.54996308 -1.20953523  0.1556057   0.61494998]
[-0.50146723  0.50242742 -0.15933833  0.63999333  1.25999227 -0.17425124
  0.72320132 -0.36089482 -0.60320028 -0.327823    0.41794034 -0.49617597
  0.21714614  0.94765283  0.69072462  0.21204787  0.11182397 -0.77922803
  0.54574302  1.13852834 -0.45241544  0.40086861 -0.83742585  1.13309389
  0.59427303  1.02042757  1.00853885 -1.08789001  0.696845   -0.51949421]
[-0.56187421  0.89942589  0.11803951 -0.17700566  1.49078738 -0.86281469
 -0.71384091 -0.26760459  0.20881778 -0.37836807 -0.38469614 -0.2227088
 -0.69641461 -0.00552296  0.09199094  0.47744424  0.15696658 -1.11866881
  0.28643524 -0.39764323  0.26654987 -0.73744838 -0.05811145  0.79592707
  0.67193096 -0.04693063 -0.19266599 -0.44057792  0.45985521 -0.09616571]
[ 0.22032508 -0.87477993 -0.01039332  0.86245578  0.63007252  0.35814512
  0.21828458 -0.44231983 -0.1628069   0.57035574 -0.17627002 -0.86112995
 -0.22312765  1.27575163 -0.35393022 -0.75356621 -0.31472656 -0.12695466
  0.30072738  0.61112403 -0.04101981 -0.0670588  -1.05597086 -0.20349311
  0.91615966  0.32547748  0.12479562 -1.258428   -1.32419797 -0.84625132]
[-9.54297021e-01  6.30076721e-01  6.98379734e-01 -4.92233274e-01
  2.62274461e-01 -8.82965116e-01  8.94633411e-02  6.41815655e-01
 -5.03659358e-01  1.64893833e-03 -4.08088023e-02 -2.08668951e-01
 -2.80959029e-01 -2.19748942e-01 -7.28458976e-01  2.63474039e-02
 -1.87059865e-02 -6.08737682e-01 -1.71017273e+00 -8.37141011e-02
 -4.86225056e-01  6.26501553e-01 -1.90232848e-01 -6.43984659e-01
  7.81680729e-01  3.70651439e-01 -8.89602969e-02 -1.48106359e-01
  2.97170252e-01  7.16346919e-01]
[-0.57966677  0.39848005  0.21970744 -1.05312918  0.04230529  0.19763172
  0.09205487  0.54337932  0.5126346   1.15761799 -0.58596113 -0.20641781
 -0.50341021 -0.15453164 -0.61513823  0.37717881 -0.24511725  0.05806625
  0.74500327  0.44740518 -0.52148154  0.01997445 -0.88335259 -0.68786455
  0.16568546 -0.22788529  1.1003752  -0.06210076 -0.39020117  0.29227592]
[ 0.65688506 -0.48183824 -0.79566158 -0.07297709  0.1907657  -0.17145041
 -0.03461073  0.63840559  0.331605    0.02771676  0.65881289 -0.59633658
 -0.78951648 -0.52867193 -0.85810561  0.93130996 -0.5383313   0.17108176
 -0.39173151 -0.37948014 -0.17298971 -0.29928167 -0.24640683 -0.8021871
 -0.270442    0.71824132  0.04574263 -0.27171513  0.50205789 -0.26291908]
[-0.61487615 -0.54334916 -0.69535259  0.48470138 -0.53447808 -0.58250494
 -0.87112595  0.30283636 -0.3231192   0.4639714  -1.0499543  -0.19077676
 -0.01646123  0.69900298  0.0802652  -0.23742172  0.58337148 -0.16753547
 -0.93241263 -0.64619025 -0.59654286  0.16600664 -0.69979918  0.35370637
  0.65028695 -0.03191693  0.79403041  0.82737839  0.78672447 -0.71607783]
[ 0.48327261 -0.77271974 -0.23922305 -0.68328165  0.44074929  0.50004245
  0.73717998  0.3482298   0.1958798   0.58193147 -0.24375421 -0.25027095
  0.30584195 -0.34607027  0.69666766 -0.35784704  1.00346576 -0.48964825
  0.32599568  0.60789283  0.19484992  0.45324491  0.56050911 -0.59973345
 -0.13997993 -0.05503459 -0.47445914 -0.0375685  -0.88383969  0.76891641]
[-9.22776905e-01 -1.25263613e-01  9.49729399e-01 -6.48645304e-01
 -6.46214665e-01 -6.55968751e-01  3.33619151e-01  7.06079006e-01
 -2.43248562e-01 -3.06048263e-01 -1.50984810e+00 -3.82802026e-01
 -2.34621799e-01  1.18492992e+00 -1.04822846e+00 -1.84378284e-01
  9.15180381e-01 -2.07767344e-01  7.06186810e-01 -6.78428546e-01
 -5.85746540e-01  8.53116180e-01 -1.15077901e+00  2.99369178e-01
  2.13965062e-01 -6.02275450e-04 -4.79033885e-01 -1.27005562e-01
 -6.65233311e-02  4.74468454e-02]
[ 0.85056213  0.35162538 -0.44102498 -0.78161815 -0.03689631 -0.45719853
  0.10628516 -0.42713398  1.09815411  0.33078556 -0.43827494  0.13614518
  0.77012648 -0.17229091 -0.34348297  0.24178858 -0.5898387   0.6733839
  0.82450462 -0.60106804 -0.75249607  0.37940969  0.07944421  0.53123692
 -0.8891112   0.20816993  0.57000148  0.0125518   0.03949     0.60907172]
[-0.08696581 -0.2061343  -0.48245463 -1.41817376 -0.83092942 -0.41152261
  0.13122141  0.12612062  0.21374754 -0.15450742  0.14758618 -0.8493008
  0.46422999  0.31577186 -0.52431893  0.98977647  0.3784244  -0.2860245
 -0.94932146 -0.30698235 -0.34473346 -0.47413815  0.73873698 -0.27685679
 -0.80733127 -0.2557161   0.98839013  1.13343747 -0.99222513 -0.03043246]
[-0.79498616  0.55389213 -0.47181953 -0.28383529 -1.33911136  0.06398892
  0.63062255  0.093153    0.76364597  0.43504577 -0.31867034  0.72336774
 -0.05776748  0.05059939  0.96909253 -0.21282334 -0.35315452  0.57292396
 -0.57622251 -0.73551887  0.16409881  0.81816852  0.77006221 -0.89889485
 -0.61531876 -0.66415393 -0.0474582   1.26097382  0.41807303 -0.89040792]
[-0.65526555 -0.29529366 -0.21820958  0.61559749 -1.08775992 -0.47784947
 -0.19722772 -0.27787978  0.57030259 -1.12477643 -0.04232832  0.67287478
  0.2233751  -0.2461896  -0.01029175 -0.0198073  -0.2851196  -0.55219644
 -0.46864541  0.46566356 -0.50057651 -0.24187782 -0.87198023 -0.73164014
  0.13276883 -0.97278014 -0.53758015 -0.20942812  0.56092332  0.53706931]
[-0.81240796  0.74716106 -0.16161192 -0.16215959 -0.0055741   0.85796103
  0.61317456  0.94377145 -0.17083869  0.56799797 -0.09936047 -0.27892444
  0.6781949   0.64462914 -0.69747478 -0.78437467  0.7727057   0.37795479
  0.17546211 -0.73785428 -0.58867144 -0.65523716 -0.44471419 -0.78924945
  0.47253896 -0.59308691 -0.95716422  0.59940543 -0.07865245 -0.79271646]
[-0.36494287  0.48459443  0.04691784 -0.12092087  0.55445112 -0.44860387
  0.01828562  0.4449124   0.60501802  0.23135281  0.3762097  -0.78356706
 -0.89023084 -1.01583862  0.0923862   0.75267274 -0.35027907 -0.72066432
 -0.12327437  0.40917331  0.16342114  0.43695286  0.6763078  -0.67815419
 -0.20168173  0.99700922  0.29202515 -0.69484753 -0.02056268  0.30864372]
[ 0.29775191 -0.44652686 -0.87265857  0.69513911  0.47914593 -0.25466907
  0.92228098  0.95224838  0.56973616 -0.51867763 -1.00664765  0.7826994
 -0.59006058  0.92948987 -0.74145638 -0.20297411  0.62364384 -0.13761388
 -0.66131516  0.16779904 -0.25757516 -0.26391418  0.94292254 -0.71540378
  1.00272032  0.01515349  0.03993896 -0.52633126 -0.13009979  0.56270628]
[-0.95263948  0.74229909  0.57794765  0.96789855 -0.46676295 -0.56239902
 -0.30705377 -0.43509775 -0.47995833  0.35431687 -0.08455331  0.31904649
  0.07164093  0.81485321  0.12554    -0.96118126  0.63138397 -0.48909145
 -0.2649487  -0.72165457  0.79178706  0.69715667 -0.79799754 -0.39503397
  0.36845054  0.90422582 -0.51101015  0.94722395  0.05625485  0.36270709]
[-0.51059913  0.31993467 -0.88989816  0.94082327 -0.11797875 -0.92233167
 -0.04181016  0.84978666  0.67129021 -0.02637016 -0.41977677 -0.77510548
 -0.59903755 -0.91922324  0.55672991  0.64833364  0.35069948 -0.35469957
  0.30232753 -0.75485021 -0.24822815 -0.69077767 -0.27788654 -0.211562
  0.82516884 -0.1018167   0.1610141  -0.15716207 -0.62786067  0.47272208]
[-0.33674918  0.82749981  0.39979995 -0.05264008  0.7622819  -0.42372597
 -0.05761896  0.55453053  0.04792353 -0.28655887  0.07392044 -0.80681841
  0.63553165 -0.55067745  0.65269827  0.62596873  0.55908337 -0.39525031
 -0.93277423  0.1199282   0.51837017  0.61508348  0.72812878 -0.69055271
 -0.38542362  0.21272877  0.01687938  0.7041737  -0.77821831  0.29756762]
[ 6.16726183e-01 -6.67386987e-01  7.58108592e-02  7.64199610e-01
 -8.41385020e-01 -2.80707128e-01 -6.53939544e-01 -5.54037705e-01
 -2.94542433e-01  5.95462097e-01  3.11022732e-01 -1.15386849e-01
  7.13195720e-01 -9.36514697e-01  7.19600742e-01  9.14400662e-01
 -2.87910091e-01  3.76224132e-01  2.07428415e-01 -5.24884669e-01
  6.39210366e-04 -4.08669522e-02 -8.27945820e-01 -5.00742398e-01
 -4.30196244e-02 -8.51281820e-01 -7.61455514e-01  6.06336304e-01
 -2.54468489e-01 -6.95638892e-01]
[ 0.38093487 -0.33257387 -0.71812361 -0.49362418 -0.79715971  0.4679882
 -0.65853527 -0.48610349  0.16022896  0.55317627 -0.08053122 -0.79127968
 -0.07978064  0.74632273  0.05373429  0.87949032 -0.50020973 -0.98736066
 -0.86114788 -0.09273501 -0.97586609 -0.3375867   0.42652664  0.27287415
  0.87216432 -0.75654031 -0.70875987 -0.36525233  0.63978371  0.63052637]
[-0.79803618 -0.47118192 -0.38822692 -0.30349818 -0.56999635  0.83230032
 -0.22921132 -0.0442262   0.21402424  0.19815645 -0.26887248  0.59937374
 -0.37609921  0.43514164  0.76970602 -0.05550304  0.37688758  0.71542557
 -0.2170538  -0.76966298 -0.29652878  0.78825344  0.02806528  0.22091108
 -0.53413802  0.74453     1.03785761  0.38197876  0.68227984 -0.29805392]
[ 0.91546305 -0.09821977 -0.76298966  0.38208248  0.93774049  0.27981871
 -0.14253749  0.32548274 -0.52302046 -0.29500393  0.8433622  -0.31268159
 -0.64803631  0.01219905  0.06866066 -1.01419541 -0.21408334  0.89883263
 -0.81525584  0.89586026 -0.36941483  1.16945667  0.38941894  0.67289305
 -0.65290173 -0.47387844  0.21059109  0.31109219  0.88399859 -0.31665604]
[-0.44251922  0.79629335  1.10244435  1.07976858  1.4697268  -1.12735505
  0.04836985 -0.24501378  0.79355448  0.7329417   0.81533424 -0.29375338
  0.80406435  0.47142257  0.90683794 -0.47763224  0.26946417 -0.30749774
  0.58516835  0.8776734  -0.33703407 -0.18566006  0.14685885  0.85098308
  0.00590848  0.76539603 -0.44613169 -1.15746885  0.12229131 -0.98508468]
[ 0.22654394  0.84720649  1.1181751  -0.37014326  0.39110901 -0.00827929
  0.03673145 -0.52290289  0.69539255 -0.65444267  0.36351429 -0.49873257
  0.48618487  0.3742629   0.62015696 -0.1627704  -0.2234694   0.33479875
  0.1257937   0.95196683 -0.49541915  1.23616661 -0.99410557  0.85765997
  0.24757461  0.50631757  0.5847187   0.33452585  0.02236755  0.4703321 ]
[ 1.0383839  -0.41798458 -0.15843878  0.31870236  1.07480849 -0.98068339
  0.09535057 -1.22033783 -0.23615007 -0.13217861 -0.57775597  0.96752346
 -0.00804924  0.68970411 -0.62544446  0.23079248 -0.21817831 -0.96672411
 -0.11166221 -0.18674172  0.5177429   0.91423637 -1.02950455  0.88092678
 -0.06007475 -0.24378482 -0.14182587 -0.51097924  0.35532165 -1.06239497]
[-3.30276215e-01 -2.85787242e-01 -2.34836635e-01 -2.30078518e-01
  3.08117734e-01  2.48706729e-01  4.28271718e-01  2.70674352e-01
  2.55721956e-01 -1.34263101e-02  5.72557462e-01  9.80067627e-01
 -6.06551316e-01 -4.58548001e-01 -3.66449136e-01  1.93650030e-01
 -9.33694440e-02 -8.78665059e-04  1.76630013e-01  2.81700248e-01
 -8.77373537e-01  1.35274759e+00 -9.79706074e-01  5.50809228e-01
 -3.87133020e-01  6.00584960e-01  7.87033309e-01 -1.51152198e+00
 -6.21291629e-01 -1.06961266e+00]
[ 0.75555655  0.96504737  0.58800493  0.09472452  0.38579379 -0.05795605
  0.17538475 -0.44755358 -0.72707854  0.15398785  0.49354688  0.62895564
  0.18468439  0.63555972  0.91750435  0.51703646 -0.55544857 -0.26673697
  0.12527983 -0.29155649 -0.84858761 -0.18335005 -0.1132959  -0.51536168
  0.70546793  0.73053257 -0.19612287  0.25484082  0.34114853  0.26902464]
[-0.45195141  0.04165544 -0.46893068  0.12854694  0.09446475 -1.19447415
  0.71210248  0.75191718 -0.27952285  0.46076424  0.90231966  0.85638481
  0.069292    0.07865543 -0.52223095  0.03592367  0.7805793  -0.2320023
  0.76967807  1.04736054 -0.54508077  0.0171482  -0.90677455  0.18977049
  1.01578596  0.26025485  0.23255454 -0.57234215  0.5062742  -1.24123098]
[ 0.02328819 -0.20999922  0.01850524  0.93812744  1.39455933  0.15020721
 -0.41083155  0.61075034 -1.03004909  0.02625853  0.28074201  0.02885141
 -0.9226511   0.25259895  1.1105267   0.04524688  0.58788345 -1.47886984
 -0.97261668  0.14918098 -0.39481457 -1.30487211 -0.04388194 -0.8348291
  0.57752294 -0.45917547  0.56313053 -0.34713168 -0.83693607 -0.96285176]
[ 0.114315   -0.17235099 -0.42472573 -0.34825008  0.04995609 -0.40783677
  0.97023553 -0.06127052 -0.44405629 -1.24083981 -0.08093293  0.91860055
  0.22422492 -0.05563758 -0.54836221 -0.56470097  1.01939421  0.14773358
  0.00181743 -0.17335821 -0.12839387  0.50040518 -0.86800782 -1.00106483
  0.98496917 -0.70019436  0.87167013 -0.1504055  -0.92230009  0.20594984]
[-0.34551355 -1.18771746 -0.05220399  0.73618055  0.91255298  0.06578446
 -0.725179    1.28111837 -0.71078412  0.3272076  -0.3263024   0.79122186
  0.32770414  0.36049786  1.02913943  0.67993714  0.55399918  0.32559205
 -0.43077033  0.07802367  0.47045036 -0.63737295 -1.05113548  0.34905704
  0.13056453  0.1737471  -0.20105073 -0.82939016 -1.01462642  0.79550487]
[-0.07645781 -0.58020247  0.5650453   0.14015441  1.12169123 -0.35280469
  0.84563151 -0.3954749  -0.26641802  0.9963605   0.26632346  0.35204861
 -0.16576325 -0.36053833  0.43774237 -0.53829203  1.04374391 -0.65808497
  0.11169214  0.35611872 -0.11094554  1.06286428 -0.72415512 -0.25980255
  1.49959092  0.50411127 -0.37698438 -0.29454322 -0.64515246  0.73507393]
[-1.18716313 -1.15517502 -0.43222446 -1.47451297  0.91442627 -1.37627074
 -0.41176224  0.51068807 -0.09463251 -0.09834261 -0.51122101  0.19254633
 -0.03824966 -0.08010577  0.84453652  0.50102202 -0.35857897 -0.38004107
 -0.79596589 -0.13782993  0.63976981  0.34667524 -1.27456422 -0.71099881
 -0.19054097  0.20430149 -0.49163852  0.71964826  0.00674919  0.13327877]
[-0.68635976 -0.34707419 -0.14440806 -1.08425141  0.16244802 -0.64005128
  0.70897839  0.49289309 -0.37028005  1.08365771 -0.04470017  0.30048113
 -0.67584752 -0.17291387  0.40672134  0.52829323 -0.08420673 -0.05543981
  0.74350918 -0.29807707  0.5471974   1.28985563 -1.57081364 -0.62754019
  1.18394847  0.66768219 -0.23574021 -0.24752027  0.20090021  0.55437409]
[-1.13491735 -0.21807869 -0.28567825  0.10790158  0.82894236 -1.1951005
  0.2557561  -0.52466138  1.08105537 -0.39278469  0.3537336   0.52581318
 -0.51813899 -0.43082379  0.27071943  0.87980145  0.73851643 -0.4692071
 -0.05298852 -0.34199699  0.04615203  0.35856546 -1.55360582  0.16258287
  0.58264435 -0.3449814   0.22262971 -0.13457186 -0.06647167 -0.35931334]
[ 0.16912857 -1.53754653 -0.04669112 -1.13343869 -0.67194421 -0.87931704
 -0.09249635  0.31874706  1.09491939  0.14653105 -0.65371196  0.5926112
 -0.4389499   0.64047267 -0.51214288 -0.67318424 -0.00602606  0.28590691
 -0.69922265  0.5793448  -0.13498064  0.64423192 -0.8850614   0.09040747
  1.26075349  0.46002481 -0.29162343  0.52420252  0.04413994 -0.38337359]
[-1.101837   -0.8259523   0.37513705 -0.53908002 -0.91577071 -0.37409077
 -0.86714835 -0.40931563  0.78447012 -0.29278795  0.42973332  0.64325834
 -0.47444556  0.2206902   0.55164914 -0.47418485  1.31551002  0.21829011
  0.17862203  0.02104658 -0.12788466 -0.28186527 -0.75573413 -0.61316485
 -0.06068988  0.32349352  1.22925629  0.08054454  0.39904664  0.21733709]
[-1.40901934 -1.02847801  0.17514628 -1.15618009  0.53642191 -0.0161156
 -0.54245696  0.36779448  0.74745606 -0.21029023 -0.46756469 -0.06857501
 -0.5739614  -0.15400447  0.49521183  0.33432372  0.75619194 -0.70943817
  0.38157598  0.17692822  0.22097627  0.57607159 -0.69019418  0.9606289
  0.38194713  0.72877071 -0.17289804  0.08312409 -0.37595875  0.86334292]
[ 0.38378095 -1.0995573   0.46214932 -1.57974446 -1.22520774 -0.49593494
 -0.58720912 -0.06597046  1.2256548  -0.96108371 -0.37554319  0.77903292
  0.03202005 -0.97587904  0.69347245 -0.40854548  1.10131704  0.01467751
 -0.09091699  0.1801961  -0.78774116  0.41273763 -0.13665205  1.13079171
  0.81533105  0.31749674 -0.24215053  1.16849494 -0.26612607 -0.25894405]
[-1.03023315  0.38622349  0.70817439 -1.10736428 -0.80998217  0.42676067
 -0.67535518 -0.04400966  1.16830828  0.69061036  0.36076818 -0.65523832
  0.86620634 -0.97592473  0.29376205 -0.14869404  0.94969205 -0.10760067
  0.94919432  0.74167235 -0.30778251  0.08777077 -0.66355298  0.78721854
 -0.56671949  0.98006558  0.42924417  0.19256976 -0.64064714 -0.18696588]
[-0.46256348 -0.08920017  0.29167296  0.62217053 -0.75387156  0.31535557
 -0.83695678 -0.21552189  0.77625615  0.77732056  0.54577275  0.30986958
 -0.92473832  0.05646776 -0.87764921  0.29919776 -0.56796312 -0.2781716
  0.21385528 -0.29495937 -0.95299158  0.19991716  0.13615092  0.0298232
  0.3116793   0.04336315  0.62507462  1.01388317  0.05803268  0.79712748]
[ 0.6558333  -0.69001094  0.07789039 -0.15583817 -0.9383373  -0.18943978
 -0.40642577  0.74100288 -0.9081919  -0.75312211 -0.04232477 -0.05671698
 -0.06522607  0.41267584 -0.6289976   0.79083223 -0.15823504  0.16763048
 -0.09220358  0.89635817 -0.60058613 -0.662522    0.4885531  -0.40347788
  0.28035528 -0.4591885  -0.43729892 -0.311971   -0.17067767 -0.01705272]
[ 0.05220366 -0.19886681  0.51744596 -0.34960026  0.17346004 -0.6797439
  0.71458995 -0.12908106  0.37655055  0.54707201 -1.00377345 -0.88458318
  0.62253035 -0.36844524 -0.11535537 -0.69296325 -0.53094597 -0.91406355
  0.15373443 -0.41213292  0.02214568  0.21483566 -0.42477861 -0.7777086
 -0.54705815  0.79535971 -0.16468272  0.61170168  0.19693458 -0.51615091]
[-0.96901582 -0.39058487 -0.10168277 -0.45248792 -0.01419885 -0.64587116
  0.99443477  0.51006132  0.46893525 -0.94852367 -0.97112059 -0.43021413
  0.47736516  0.44181218 -0.97863265  0.59216492  0.94385361 -0.64317432
  0.97700077  0.20005503  0.42329567  0.05186158 -0.18849844 -0.12973523
 -0.90104058  0.10176684 -0.39365171 -0.976559    0.50413042  0.14198261]
[-0.74532028  0.99044612 -0.76742375  0.55450675  0.46873293  0.23987542
 -0.20600189 -0.36727358 -0.2483085   0.14949382  0.97778494  0.5630221
 -0.3490122   0.84530397 -0.78642862  0.11828027 -0.48074213  0.96261627
 -0.87065009 -0.1038412  -0.11854404  0.41782833  0.52852289  0.09444021
  0.04546655 -0.43560603  0.7570834  -0.74549787  0.56271949 -0.11045407]
[-0.96672709 -0.09618665 -0.52652273 -0.83246036 -0.54719046  0.31547344
  0.73400357  0.77357611  0.43721282 -0.62773613 -0.39698741 -0.77274198
 -0.67954529 -0.27718237 -0.78227678  0.99334826  0.33026877  0.5306969
 -0.08959084 -0.57338449 -0.79327717  0.80075422 -0.36282778  0.68204601
  0.36541798  0.43222054  0.51036146  0.75174131  0.03534644 -0.61988353]
[ 0.09890143  0.11533692  0.04909224  0.42674602  0.93582499  0.64559694
  0.0602717   0.37763733  0.62068528 -0.13646834 -0.46686417  0.64587554
  0.6797301   0.14489673 -0.25864093 -0.16784399 -0.55809554 -0.89723591
 -0.47027945  0.65305842  0.43954286 -0.5249844  -0.6449453  -0.23667841
 -0.44745065  0.18352508  0.49443347  0.84077883  0.76648222 -0.61091824]
[-0.29687336  0.7884357   0.91641627 -0.64137687  0.16418216  0.14743332
 -0.47066233 -0.47109696  0.50634578  0.91465703 -0.87231706  0.24730624
  0.40300925  0.58797031  0.38206776  0.53207434 -0.32458731 -0.33494649
 -0.36880817 -0.39419928 -0.5486967  -0.14945737 -0.30456373  1.02965674
 -0.11329377  0.84754176  0.4240403  -0.87906814 -0.4055819   1.05597578]
[ 0.45600116 -0.20372019  0.60862494  0.17694541 -0.0424766  -0.03757548
 -0.73380632  0.04878798 -0.72710699  0.74561096 -1.21957085 -0.87804615
  0.07033592 -0.17271394  0.67832171  0.46494395 -0.64067469 -0.18475843
  0.07403216 -0.98834336  0.68362393 -0.88562203  0.00294005 -0.48680953
 -0.24988374  0.7060218   0.94566647 -0.6502442  -0.68720679  0.29763601]
[-0.16393535  1.26962284  0.47468216  0.12015303  0.20062722 -0.84364043
 -0.07741099 -1.00647091 -0.71906861  0.36039778  0.76453474  0.3791583
  0.35034238 -0.61525961 -0.79768745  0.23161259  0.93726926 -0.12549432
  0.52188593 -0.55368979 -0.97462484 -0.56907705  0.75907007  0.45976879
  0.63056693  0.3158911  -0.08432369 -1.08385765  0.91433004  0.47812299]
[ 0.74143664 -0.00134454  0.10057408  0.90095579  0.68597484  0.04173973
 -0.2295286   0.40012835 -0.10306882  0.58831223 -0.16149121 -0.44977951
 -0.94643988 -1.17220892  0.67142277  0.46951458  0.52427285 -0.23493347
  0.45446111  0.58395062  0.536188   -0.13243061  0.56102331  0.7900476
 -0.99881866 -0.22993159  0.7843182  -0.57172239  1.15606142  0.64261444]
[ 0.67784954 -0.37075128  0.95841176  0.08777101  0.1575659  -0.34217993
  0.57599365 -0.37016077 -0.36613172 -0.14369052  0.93785013 -0.38664601
 -1.54419441 -1.28273287  0.6261126   0.47837902 -0.19064069 -1.03281215
  0.29208304  0.74483323 -1.15380057  0.48303399 -0.1993321   0.41167991
 -0.01359512 -0.03961333  0.83687754 -0.08277578  1.12998999 -1.08779538]
[ 1.13964564 -0.31077888  0.19701898 -0.44415643  1.19650278 -0.57365085
  0.38022648  0.34008123 -0.62154254 -0.16867904  0.4053669   0.42678015
  0.01214496 -0.32375807  0.27498373  0.39365516  0.74991528 -0.91092564
  0.04970725 -0.06700031 -0.2997421  -0.22342586 -0.6342945   1.09202206
  0.47530227 -0.07422216 -0.41712835 -1.0125021   0.81866846 -0.60387002]
[-0.48583381  1.39151352  0.75365862  0.32316648  0.99077975  0.44859899
 -0.64194773 -0.31048162 -0.68502337  1.03439783  0.93880803  0.8458168
 -0.87183942 -0.18881354  0.98081636  0.35641887  1.24997041 -1.22070432
 -0.17849619  0.58803712 -1.66767043 -0.21836738  0.17754896  0.06114703
  1.3346649   0.33051986  1.34179716  0.20578034  0.64477169 -0.71664629]
[ 0.15616805  0.37386035 -0.33757239 -0.57048133  0.56212492 -0.82604814
 -0.80844053 -0.25943889  0.37682236 -1.04404895  0.07679972 -0.273743
  0.39750878 -0.21618174  0.1157433  -0.67157644  0.54088067 -0.47144225
  0.86112118  0.71779087 -0.35797145  0.31477242 -0.71369426 -0.6747049
  0.11272023  0.3526473   0.40774454 -0.86971878  0.4524223  -0.8308899 ]
[-8.04973801e-01 -2.07322462e-01  2.82259929e-01  1.42465100e+00
 -1.00007885e-01 -2.66806447e-01  8.03781736e-01 -2.30680767e-01
 -1.03187467e+00  6.19032106e-01 -3.16998908e-01 -6.22059078e-01
 -9.16414457e-01  1.65846685e-01 -4.87390892e-01  9.00564042e-01
  1.21526437e+00 -1.06953253e+00 -7.50422432e-01  4.59736745e-01
  3.59048350e-01 -1.09526371e-03  4.98604784e-01 -3.78318588e-01
  3.73892747e-01 -4.35599945e-02 -2.22333695e-01 -7.34308129e-01
 -1.29862316e+00  4.54364566e-01]
[ 0.23757416  0.18433702  0.06735541  0.62920146  0.7158513  -0.8589914
  0.03248559 -1.07802099 -0.07506325 -0.55470912  0.02358626  0.84951699
  0.03485019  0.53216565  0.72154761 -0.40517604  0.51991534 -0.12178679
 -0.71438038  0.62352995 -0.48509856 -1.01456994  0.30273864 -0.01432237
  0.06182951  0.62451803  0.86222974 -0.53473249 -0.43248383 -1.06234392]
[-0.13977539  0.26083285 -0.85897708  1.01478872  0.74178459 -0.96478271
  0.20415803  0.32538673 -1.20820967 -0.07946274  0.09321413  0.38719257
 -0.44920725 -0.51835793  0.02101253 -0.03531317  0.91258997 -0.56961872
 -0.10288286  0.76235526 -0.38101794 -0.50904223  0.41744925 -0.67721592
  0.54997187 -0.80020742 -0.39321921  0.20437637 -1.31230155 -0.01860984]
[ 0.94580275  0.18908365 -0.02518597  1.16488445  0.67828518 -0.79838992
  0.57872974  1.06437445  0.075625    0.4560304   0.36815073 -0.28590664
 -0.55679717 -1.08158684 -0.47761709  1.04323528  0.38786855  0.22871515
 -0.91096853  0.52745621  0.38295549 -0.8005115  -0.44728199 -0.47886517
  0.43486796 -0.04592429  0.64017609  0.47437648 -0.98297957 -0.49130786]
[ 1.25545272  0.14668669 -0.34412065 -0.21252528  0.58535751 -0.32780574
  0.65604287  0.50012439 -1.58414575  0.51830234 -0.10471005  0.77356834
 -0.91676794  0.21770235  0.02002005  0.44800167  0.81164075  0.18361934
 -0.09701868  0.92794786  0.21193848  0.14418726  0.14271635  0.02469
  0.55967538  0.29796762 -0.35040725 -0.64548983  0.30961591 -0.19754966]
[ 0.62801662 -0.58577645 -0.93501891  0.12446194 -0.00193505 -1.43725458
  1.07385967  0.65426293 -0.25029038  0.64726486 -0.63186968 -0.40604316
  0.23679435 -1.10110204 -0.72373605  0.22983019  1.7029153  -0.61114962
  0.2090596   0.52255311 -0.62023617 -1.16551918  1.0466788  -0.35026111
 -0.01556271  0.05650155  0.91841421  0.43108147 -0.10731282  0.30600118]
[ 0.89878877  0.08964212  0.62999782  0.26214887  0.26570624 -1.07965717
 -0.40344358  0.9474775  -0.35828796 -0.07845345  0.53413851  0.15291644
 -0.57137047  0.0448838  -0.3431707  -0.78756343  1.56830009 -0.30116092
  0.55650746  0.89861606  0.22115251 -1.06744271  0.08450821  0.15470612
 -0.11888292  0.74091576  0.32600166 -0.07279871  0.73892197 -0.37073011]
[ 0.61313986 -0.22192135  0.86367822 -0.5734812  -0.60088152 -0.39467528
  0.56148376  0.0307156   0.32302436  0.55640274  0.13541176 -0.54213819
  0.02488319 -1.02724507 -0.25691957  0.79226816  0.24746411 -0.59769606
 -0.61842067  0.06902761 -0.1135159  -0.28705888 -0.23545235 -0.16940935
  0.91611186 -0.28345286  0.49871468  1.00533738 -0.35318084  1.02105566]
[-0.08860499 -0.85517948  0.5432089  -0.23896997  0.21213453 -0.3661234
  0.95012216 -0.08278191 -0.3278927  -0.36966717  0.25012923 -0.70076461
  0.47219559 -1.00091062  0.71914445  0.83143652  1.44440206  0.04903984
  0.63072668 -0.30149448 -0.09832381 -0.86604654 -0.76933385 -0.82162786
  0.52176172 -0.37583207 -0.1200516   0.05853872  0.52628114 -0.05454387]
[-0.0684704  -0.8854629   0.18859922 -0.21354199  0.23175589 -0.42076822
  0.74218861  0.51889721 -0.04142599  0.17502536  0.04962915  0.33695849
  0.61948633 -0.51043111 -0.32677545  1.15123386  0.96588706  0.54281023
  0.39258077 -0.70225597 -0.0331044  -0.70678168  0.41454159  0.539485
  0.50882577 -0.35362202  0.51155518  0.1388329  -0.34879034  1.03451074]
[-0.02721468 -0.49449968 -0.33689812 -0.9658413  -1.08602837  1.50333673
  0.97558671  0.22000869  0.50129116 -0.71410356 -0.8209334   0.78835826
  0.71980022 -1.06290372  0.60080234  1.10834213 -0.39984958 -0.68422485
  0.7175729  -0.24860905 -0.31626857 -0.15190223 -0.69027107 -0.47685169
  0.47539213  0.25100977 -0.24753363  0.1195254  -0.62251025  0.32193542]
[-0.69733309  0.23063816  1.575034   -1.95763316 -0.37381513 -0.13012437
  0.97411768 -0.61945314  0.05478057  0.29841456 -0.60426091  0.0494669
  0.87932747 -1.29627384 -0.33000714  0.5596083   0.41679232  0.14318787
  0.5503272  -0.30443268 -0.54918449  0.44907343 -0.71226816  0.1099854
  0.65278786 -1.22136779  0.32603501  0.68275112  0.67134672  0.83714705]
[ 0.06504929  0.46562299  0.79175163 -0.99168515 -0.76359721  1.21542103
 -0.56324117  0.23707519 -0.69812145  0.30522112  0.74467083 -0.43894626
  0.10182988 -0.09442177 -0.41677099 -0.01132568 -0.56534727  0.05856363
  0.17985623 -0.04742377 -1.37374587  0.27609624 -1.08593429 -0.83375496
  0.73203922  0.72615106 -0.73644589  0.56535879  0.60670239 -0.80805932]
[ 0.79158937 -0.46524379 -0.38652417  0.63071892 -1.04439705 -0.20226716
  0.45694479 -0.70407984  0.8363301  -0.47287604 -0.04149585 -0.08231238
 -0.63116573 -0.8889474  -0.54667741  0.14014387  0.71887022  0.76643464
 -0.38760711  0.97590744 -0.62719464  1.16426215 -0.8813927  -0.13635906
  0.20223101 -0.20373016  0.85143429 -0.53746444 -0.57822839 -0.18283868]
[-0.61989322  0.74482812 -0.60058141  0.35838805  0.2875814   0.64156063
 -0.68163603 -0.77239316 -0.54774227 -0.93476682 -0.24411591 -0.30766684
 -0.81295585 -0.83585901  0.291152   -0.4813566  -0.04682057 -0.80830202
 -0.28186615 -0.47920534  0.58522269 -0.86986865 -0.38964441  0.74273696
  0.92104484 -0.85955441 -0.93588654  0.30863623 -0.76677312 -0.30707589]
[-0.71867565  0.57419424  0.39773133 -0.84209402 -0.18118697 -0.42893743
 -0.47155877  0.14420781  0.81509515 -0.90501138  0.04510177 -0.30797085
  0.906779    0.13829352 -0.93432067 -0.55116715  0.4275097  -0.42334407
 -0.31864573  0.17576463 -0.25701207 -0.90454573  0.80627116 -0.2834945
 -0.39418502  0.98182981  0.68653816 -0.11942026 -0.12768053 -0.07862385]
[ 0.76592626 -0.87833997 -0.93666998  0.18053318 -0.10768446  0.07596243
  0.3196565   0.06874858 -0.24070897  0.70290061 -0.92270065  0.85937298
  0.17576157 -0.27340373 -0.99433405 -0.10048651 -0.54496972 -0.22697102
  0.12635001  0.0564262  -0.33089526 -0.71162874  0.60541985  0.06684594
 -0.04983302  0.08952953  0.76763741  0.47765999  0.4929999   0.05646117]
[ 0.970428   -0.7270104   0.42569604  0.10392938 -0.19021822 -0.40443861
 -0.53582753  0.9357973  -0.01041834  0.23994817 -0.05352576  0.6233014
  0.66094249 -0.21113474 -0.76799657  0.67805761  0.73237215 -0.20943934
  0.08134573 -0.64407374 -0.94452085 -0.74735284  0.49046544 -0.01446843
  0.4782216  -0.63885842 -0.71273781 -0.36393087 -0.39245035 -0.3969314 ]
[ 0.11409148  0.07840992 -0.24072461 -0.24079549  0.87308867  0.06005325
  0.32711365  0.8599377   0.67882072 -0.45758309 -0.01756601 -0.07532752
  0.17181793  0.23060631  0.22942244 -0.89964668  0.61600096  0.56652531
 -0.56319177  0.81691422  0.93288145 -0.65433196 -0.17629971  0.64750785
 -0.29231016 -0.07331955 -0.55923874 -0.97112311  0.3382616   0.84259002]
[-0.53942474 -0.37098296  0.14047244 -0.62803606  0.26969625  0.08517419
  0.20536363 -0.1132208   0.10344804  0.65337414  0.01286832  0.45109774
  0.79682171 -0.61523069  0.03209467  0.14085814 -0.48845534 -0.15935476
 -0.59669974  0.83093248  0.94459115  0.13828502 -0.61762772  0.52051245
  0.19908551  0.16888207 -0.47327987  0.52432865  0.36956683 -0.08304149]
[ 0.76669112  0.89551556 -0.66543231 -0.57908433 -0.70499745 -0.91061912
  0.48150843  0.02219318  0.59250295  0.10162932  0.45731687  0.76026464
 -0.30775485 -0.30783098 -0.4709218  -0.98067492  0.93923757  0.75895488
  0.40511917 -0.54335123 -0.83503836  0.99028144  1.05748406  0.64518771
  0.66994312  0.82569765 -0.57715371 -0.35537319 -0.11780595 -0.34732488]
[ 7.65196649e-01  6.87538331e-03 -7.68554314e-01 -1.02630105e-01
  2.57763992e-01  4.56809459e-01  1.36546493e-01  3.41464693e-01
 -7.33689944e-01  1.14024411e+00  4.59360451e-01 -4.22489476e-04
 -4.82886348e-01 -1.18072487e+00 -1.27376351e-01 -5.54531495e-01
  1.12714566e+00 -5.96182639e-01  1.50452770e-01 -6.23888358e-01
  4.54475534e-01  6.62356589e-01 -4.29590138e-01  4.53025895e-01
 -3.89084220e-01 -1.96103848e-01  1.00508163e+00  7.20886558e-01
 -3.76267666e-02  5.03332624e-01]
[-0.11392903  1.32843826 -0.46234971  0.53354602 -0.4095641  -0.87019777
 -0.62869971 -0.34122026  0.93915302  1.21796751  0.44671462  0.6025923
 -0.07678563  0.52934769  1.14504324 -0.83557676  0.56673614  0.04462321
  1.14861702  0.05206286 -0.34153731  0.67653931  0.4221368   0.94385324
  0.74254806 -0.69829537 -0.6608344   0.59385843  1.06508835  1.02210855]
[ 0.39156695  0.53209496 -0.37736577 -0.69377075  1.16419467  0.62547805
  0.22717383  0.53025655  0.67833299  0.20083339  0.76661203 -0.03396812
 -0.02400305  0.48021725  0.92863085 -0.61047324  0.72070275  0.21535317
  0.09653206 -0.06785851 -0.4053801   0.46609496  0.16522294  0.88044305
 -0.91586334 -0.46996814 -0.3157597  -0.90309091 -0.0549712  -0.5572593 ]
[-0.26115097  0.63245578  1.06248683 -0.63632325 -0.67998782 -0.86230444
  0.22380897 -0.61455801 -0.25680907  0.38903799  0.40449395  0.24566692
 -0.66564339 -1.23367295  0.55611965  0.68283674  0.26295848 -1.07520357
  0.57623922 -0.06149474 -1.19521896 -0.39081467 -0.99635335 -0.17209903
 -0.22700196  0.37071284  0.52952568 -0.4937747   0.35237864 -0.47323771]
[ 0.19502497  0.10554832 -0.08070912  0.2542612   0.12250512  0.46073654
  0.88927005 -1.59527264 -0.63758994 -0.39305612  0.72163355  0.39926787
 -0.25193362 -0.94943999 -0.56318454 -0.95591123  0.05856585  0.48795171
  0.22505633  1.03624776 -0.28823244  0.57815328 -0.04753589 -1.04636486
 -0.04256432  0.01217244 -0.37334998  0.42244888  0.87090665 -0.83104044]
[-0.9701251   0.99928117  0.42306474  0.35610341  0.73856101 -0.32640227
 -0.00573739 -1.40487227  0.02731105  0.28648715  0.03329511 -0.7920498
 -1.38460214 -0.4394637   0.22571043  0.31349403  0.49681186 -0.27055132
  0.41355886  0.86836498 -0.01319624 -0.88255799  0.28218526 -1.37745944
  0.23772648  0.13960061  0.06304605  0.37545814  1.05194647 -0.35964655]
[-1.23885523  0.78911275  0.91034581  0.13963426  0.94925495  0.20461427
  0.3638235  -0.55691397 -0.09405464 -0.03648652  0.88545231  0.59785275
  0.06370779 -0.33895519  1.25457639  0.43094223  0.27745547 -1.11165737
  0.32032108  1.28207247  0.1159947   0.18458781 -0.69561155 -0.60708681
 -0.81655266 -0.49962065  1.01072656  0.33446754  0.19961424 -0.25095665]
[-0.1254037   0.7040159   0.44802088 -0.14055722  1.02572508  0.76288509
  0.57201673 -0.09010667 -1.33722296 -0.05057898  0.60840658  0.7215243
  0.43579061 -0.90797902  0.6650056  -0.02578439  1.32848994 -1.26849353
 -0.12289025  1.32234842 -0.35979251 -0.2988451   0.70940897 -1.20756105
  0.02149499 -0.40455248  0.12268529  0.52941138 -0.9755109  -0.13368602]
[-0.52003354  0.88995599  0.66280049  0.45021417  0.86642293 -0.23059032
  0.11507269  0.39885121  0.08561688  0.1204497   0.56874555 -0.39375232
 -0.13734466 -1.04045597  0.6417926  -0.56566235  1.03873839 -1.01642217
 -0.28868407  1.23632095 -0.53070754 -1.03079506  0.45233725 -1.12331191
  0.04164064  0.35620388  1.07057209 -0.05525203 -1.16520973 -0.88114633]
[-0.44714203  0.10787512  0.48305746  0.64139655  1.2970189   0.51549602
  0.18552451  0.15804559 -0.90179186  0.34863322  0.0466876  -0.68472657
  0.30077669 -0.05844329 -0.5010234   1.12780834  1.58210638 -0.18898839
 -0.06077167  0.42197348  0.33945877  0.27873477  0.8568572  -0.51066135
  0.1554657   0.61812335  2.00806888 -0.35300458 -1.81247002  0.28288943]
[ 0.99998324  0.21538267 -0.91462415  1.21994466  0.08599011 -0.99977454
  1.3268862  -0.29514533 -1.56645037 -0.20163054  0.16046634  0.12580306
 -0.52607814 -0.38729914  0.54388563 -0.05192335  1.43970618 -0.71620352
 -0.48150311  0.95490932 -0.53111272 -0.73578934  0.50813838 -0.79883482
 -0.13428425  0.11470838 -0.18855742 -0.30908027 -1.45525861  0.47153625]
[ 1.18887895  0.1704244   1.08419515 -0.16271146  0.1179185  -1.01076654
  0.77919532  1.53952364 -1.57292548  0.40629528 -0.24996279 -0.59057773
  0.65799651 -0.91958425 -1.66869812 -0.21493573  0.57750114  0.03842019
 -0.39336003  0.35399048 -0.88650776 -1.16070119  1.50944244 -1.24134359
  0.14126431  0.36733537  1.21702546  0.61164651  0.21049498 -0.03660418]
[ 0.24883885  1.22890808 -0.24789799 -0.34515501 -0.05030064  0.73073353
  0.91937962  1.13986854  0.34879669  0.11814193  0.86773686  1.32789664
 -0.84775945 -1.24077015 -1.34657115 -0.00415854  0.97180914 -0.52506295
  0.03827681  0.593701   -0.23287821 -0.52733731  1.11883281 -0.07190486
  0.23808334  0.6048936  -0.05785663  0.40586931  0.36588663  0.11084781]
[-0.31394328  0.63338164  0.32596575 -0.28071946  0.17335164 -0.56379424
 -0.38413403  0.60984601  0.67369665  1.20745566 -0.65299093  0.9285893
 -0.15628362 -0.14468593 -1.49035278  0.01768643  0.18433405 -0.70847171
  0.13510813  0.07439815 -0.34054853 -0.88943012  0.09168135 -1.83780572
  1.01959289  0.6028087  -0.37469884  1.17622116  0.87173147  0.31118832]
[-1.0110205  -0.52111936  0.04136448  0.02685287  1.04574896  0.30539735
 -0.60028661  1.3447617  -0.79809906 -0.13890854  0.38509965  0.65202852
  0.50454218 -0.14817005 -0.53419334  0.33658495  0.74360686 -0.38835823
  1.0660286  -0.47174814 -0.89694509 -0.4773263   0.07909231 -0.69516909
  0.46656924 -0.37130844  0.38859528  0.02157421 -0.27979812  0.77735756]
[ 0.12201712  0.49069998 -0.71772633 -0.25335478  0.06973183 -0.01589037
  0.87952403  0.21181609 -0.48999032  0.88230795  0.28180933  0.96856133
  0.1820251  -1.51590829  0.04935831 -0.26773805  1.03937734 -0.36794921
 -0.14835064  0.18131774 -0.11013893 -1.32662588 -0.08097686  0.72625262
  1.44367561 -0.01364304 -0.34949186  0.07086677 -0.5029838   0.77676053]
[-0.90932875 -0.2033733  -0.14845336 -0.7250544   0.45944533  1.12202507
  0.85277909 -0.04079576  0.3851351  -0.5436724   0.26635213  0.35804652
 -0.87186227 -0.16221832 -0.67339078  0.75148788 -0.21660985 -0.62399761
  0.08934789  1.02683868 -0.71403281 -0.24388411 -0.35170919  0.08586112
  0.00435578 -0.45498505  0.59184333  0.87359276  0.87564465  0.30041687]
[-1.13128416 -0.40292941  0.54944017  0.08167381  0.78253168  0.24332485
  0.24375003  0.50050331 -0.40408633  0.00813205  0.11021657 -0.1215639
  0.37610106 -0.41481437  0.22283754  1.41896987 -0.07623351  0.23369442
  0.16403565 -0.62843804  0.1366014  -1.10106491 -0.93620508  0.95749966
  0.6998005  -1.28405596  0.6641541  -0.30733008  0.24460259 -0.30755487]
[-0.55246627 -0.02429624  0.28744959 -1.64831904 -1.19985747  0.46648094
  0.67549215 -0.77040028  1.15248383  0.15334538 -0.81626639  0.08431991
  0.41560641 -0.78650595  0.48033286  1.14452317  1.0416998  -0.71177695
  0.91351207 -0.29052464 -1.06864    -0.56052296 -0.14594432  0.6376001
 -0.20823373 -0.32891269 -0.6358739  -0.02533253  0.32400065 -0.04819061]
[-0.48145084 -0.66442761  1.19983688 -1.53049335 -0.29466364 -0.23617463
  0.50425521 -0.24732379  0.26431092 -0.71973957 -0.7957815   0.97781009
 -0.8881555  -0.02052387  0.76398909  0.44840854 -0.45928146 -0.08416032
  1.37030754 -0.77499768 -0.02984557 -0.77566439  0.2487737  -0.64801052
  0.25487639  0.26911872  0.73777548  0.96991116  0.16354397 -1.10086437]
[-1.07777729  0.50134536 -0.11826952 -0.02927182 -0.52517691  0.57978771
 -0.09170099 -0.35323678  0.85797559 -0.70587795 -0.50917354  0.43752348
  0.19063425 -0.76309479 -0.62590002 -0.01685516 -0.63386889  0.58107193
  0.24163797 -0.90310539 -1.34535852 -0.62629578 -0.27795322 -0.47841372
 -0.44439691 -0.15445908  0.97723623  1.0639819  -0.99534473 -1.05348209]
[ 0.75382855  0.09117411 -0.15488332  0.29155128  0.36574514 -0.11804464
  0.80262441 -0.14844287  0.63840156  0.27368733  0.18215839 -0.58062008
  0.66941489 -0.89376965  0.9960145   0.87417715  0.84215966 -0.98767421
 -0.44875232 -0.00770989 -0.36196124  1.06624611 -0.93227483  0.16887691
  0.52486378  0.52591363 -0.13334485 -0.66508189 -0.02102881  0.29711809]
[-0.77700521 -0.74484368 -0.06807061 -0.29136542 -0.97255074 -0.62701304
  0.18920316 -0.3067155   0.0178777   0.65768437 -0.21266805  0.70736517
  0.75180193 -0.81149716  0.07653417 -0.84400409  0.1992137   0.35470587
  0.61757194  0.50614357 -0.55784372 -0.86458949 -0.48640456  0.66388506
 -0.61531617 -0.26760845 -0.95464194 -0.29339883  0.39562506 -0.7544702 ]
[ 6.13607234e-05 -6.09254861e-01 -6.24184774e-01 -2.21869669e-01
  2.07290676e-01 -2.82097597e-01  6.17093633e-01  1.35770279e-01
 -9.44075846e-01 -6.61031075e-01 -8.05581158e-01  8.41381961e-01
 -6.70428825e-02  5.46035949e-02  2.05246285e-01  5.55266367e-02
  5.08266578e-02 -8.97943090e-01 -4.25223043e-01 -1.33989684e-01
 -5.29436812e-01  3.93591807e-01  9.55075729e-01  2.76413894e-01
 -6.26699035e-01  5.19550279e-01  6.76544376e-01 -8.43353835e-01
  5.26759909e-01 -3.66266680e-01]
[ 0.04016669 -0.17966293  0.46607584  0.30901467  0.30977865  0.71649357
 -0.82538594  0.84329566 -0.11072899 -0.32404727  0.21610097  0.94474966
 -0.2903621  -0.70579581 -0.74492163  0.26722456 -0.96122828 -0.43363
  0.83859146  0.12388899  0.24271082  0.26684274  0.72297307 -0.07245715
 -0.61122398 -0.3479939   0.54277259 -0.18569434 -0.02210022  0.28886649]
[ 0.97654967  0.75617501  1.0840973  -0.0838453  -0.17480204 -0.80648226
 -0.01554141  0.98318896  1.00891577 -0.39714347  0.17627699 -0.31887158
 -0.76996117  0.76341775  0.3698738   0.65605629  0.35702712  0.97527676
  0.45127367  0.63008667 -0.86411275 -0.66329812  0.53675994 -0.93990577
 -0.71517363  0.96063829 -0.08425098 -0.45955268  0.64241776 -0.04832873]
[ 0.43172736  0.40646013 -0.57325675 -0.39041057 -0.07437892 -0.88087854
 -0.13551707  0.04257392  0.60352635  0.90842     0.09676918  0.36826607
  0.02273066 -0.61629355  0.01837028 -0.53489154 -0.16757618  0.17867521
  0.73625055 -0.8726034   0.57843001 -0.7571258   0.96407073  0.57690859
 -0.09717121  0.72464847  0.21662778 -0.74098732  0.65402698 -0.39225778]
[ 0.70417275  0.8766042   0.41889386 -0.2032835  -0.7110339  -0.47578232
  0.84697502 -0.88717319  0.7379509  -0.12545527  0.51428038 -0.42726118
  0.65990597 -0.43825889  0.11388934  0.31550878  0.34298482 -0.73527135
  0.24276553 -0.06425387  0.26457433  0.9672481   0.36774731  1.15961398
  0.35242359  0.18174272  1.03500895 -0.70757025 -0.11470231  0.52992578]
[-0.8699777  -0.29278302  0.08515283  0.79939079  1.10216036  0.39545727
  0.56470471  0.30722437 -0.98013121  0.52564217  0.33952289 -0.0146684
  0.17222317 -0.27422299  1.06593757 -1.23738222 -0.16079801  0.15950384
  0.77062439 -0.39740196 -0.77612921 -0.83756505 -0.62730846  0.21557807
 -0.79576933  0.29337912  0.96595588  0.24265891  1.29555193  0.42041407]
[ 0.64772196 -0.23265035  0.41260674 -0.09294021  0.48134893 -0.40332792
  0.7010567   0.32010078 -0.37789038  0.69130925  1.00007402  0.68548886
  0.11759736 -0.74748258  0.6848024  -0.12319866 -0.36425112 -0.59470806
  0.72343561  0.16038922 -0.99932331 -0.94431251  0.286707   -0.68025002
  0.56962666 -0.03942588 -0.46618287  0.56978416  1.26892609  0.26112833]
[-0.89663392 -0.49025481  0.26127568  0.73773474  0.3626141  -0.20734724
  0.53880812 -1.01661341  0.69413425  0.07498681 -0.07328169  0.1986288
 -0.77841478 -0.59258043  0.28135078  0.09195709 -0.5668731  -0.32843017
  0.71210955  0.63203326 -0.1910108  -0.0827837   0.05413636  0.32767201
 -0.68245778  0.89749857 -0.28784918 -1.03240572  0.09435521 -0.2506132 ]
[-0.38950817  0.47538269 -0.98940193 -0.29285988  0.2768057   0.42809297
  0.3519098  -0.06972061  0.71650605  0.69138411 -0.03013918  0.92655444
  0.2339998  -0.46185161  0.41820487 -0.09491455 -0.7330351  -0.31639279
  0.48860846  0.79586878 -1.68958706  0.10733218  0.38327355 -0.98842431
  0.04666306 -0.86277226  0.66115464 -1.30469766  1.65621788  0.13874462]
[-0.61229684  0.55915302  0.41090021  0.4181639  -0.24021943 -0.81826709
 -0.20956923 -0.6343577   0.42903238  1.16262285  0.77973322  0.09909506
 -1.21159602 -0.48719562  0.93149809 -0.46626844  0.31639507 -0.00868332
  0.77351124  0.39721023 -1.17290022  0.48930434 -0.09110539  0.23574239
  0.63732285  0.12150194 -0.67951324  0.32007301  1.04456461 -0.69043616]
[-0.55005487  0.69979952 -0.41893661 -0.40657085  0.67405921 -0.31352103
  0.75514972  0.00190342  0.25417681 -0.12381798  0.32248292  0.30392798
  0.18209841  0.65483241  0.81480371  0.69190012 -0.02831734 -0.23528445
 -0.50519539  0.89039445 -1.1178227  -0.90568309  0.31511242 -1.52841856
  0.04470443  0.46460868  0.09074506 -0.87363406  0.48822513  0.44689375]
[-0.4254817   0.10817937  0.67787812  0.08262017  0.12200042  0.32772397
 -0.33988156 -0.74120283 -0.43533709  0.31207859  0.40781254 -0.93549204
  0.29091007  0.24454331  0.62841816  1.04980441  1.06579486 -1.42133399
  0.95649172  0.39461422 -1.09771551  0.14497291 -0.30577272 -0.48936191
  0.40722757 -0.20134908 -0.40003336 -0.68599071  0.25791535  0.59826802]
[-0.81998013  0.29501682  1.12361695 -0.18860283  0.54353789 -0.40690408
  1.10544795  0.34357478 -0.40953496  0.16395528  0.04207642  0.46630026
 -0.87347597 -0.36772186  0.57344104  0.3392731   0.23926868 -1.63084754
  0.25256236  1.0430511  -0.37080172 -0.79083625  0.85411553 -0.78239265
  0.15377993  0.44121828  0.86212824  0.19910666  0.0798105  -0.0443002 ]
[-0.22394367 -0.19791956  0.76902806  1.37777428  0.73389766  0.60757445
  1.10834703  0.7430353   0.30387497  0.70167674  0.31291016 -0.47691386
  0.54752791  0.28517045  0.32769685  0.83915437  0.29328971 -1.41835845
  0.76046591  0.21547773  0.03489971 -0.52930482 -0.41550621 -1.29059576
  0.9702364  -1.04256136  0.54454982 -0.31332898 -1.37494327  0.93966423]
[-0.18143187  0.78024643  0.65054992  2.03086593  0.74025016 -0.10182415
  0.90504191 -0.07235792 -1.81465327 -0.22005266  0.05422966  0.82938305
 -0.69247951  0.2856602  -0.06151543 -0.24934599  0.0241098  -0.7446241
 -0.83228626  0.29994605 -0.08697584 -1.15174388  0.36465459 -2.28502141
 -0.15211404 -0.77863859  1.00216892 -0.19883041 -0.12781319  0.34500497]
[ 0.93959374  0.93578983  0.62136425  0.13360099  1.77629814  1.05528347
  0.96085247  1.5926391  -0.16439314  0.76355021  0.5683864  -0.89028841
 -0.20405057 -1.33542081 -0.02295489 -0.83177206  1.39444204 -0.19320991
  0.37676707  1.30650172 -0.96231007 -1.69190764  0.04690681 -0.93847201
  0.62724863  0.29011757  0.99037018  0.5349895  -0.723459   -0.73713255]
[ 0.54861273  0.84112236  0.14868447  0.51193582  0.83029997 -0.01629173
 -0.33174768  1.25967983 -0.02928483  0.75466499 -0.32152462  0.8992474
 -0.63453889 -0.39195547  0.32631209  0.17485195 -0.16120158 -0.36196556
 -0.15667939  0.73816038  0.55365124 -1.30263026  0.64003306 -1.42206051
  1.01559168 -0.92952667 -0.65391349  0.42664238  0.11467668 -0.28085955]
[-0.72855351  0.74822305  0.06805238  0.70202553  0.53479051  0.74017271
  0.97795954  0.2563222  -0.48571279  0.43570705  0.17728611 -0.06191407
  0.25961961 -0.88326008 -0.06336276 -0.76601594  0.69562492  0.598522
 -0.05959118 -0.3574387   0.12149057 -1.41871398  0.02922198 -0.64490091
  0.2417386  -0.93538592  0.65357641  0.60062022  0.32852403  0.6579936 ]
[ 0.44854912  0.98447191  0.70874401 -0.81954503  0.97817911  0.16717264
 -0.64665894  1.71470394 -1.00468075  0.65909416 -0.38313541 -0.18353911
 -0.34944226 -1.18335029  0.33388409 -0.57527268  0.14913438  0.0791034
  0.22165386  0.3230829   0.40289097 -1.95358564  0.61794996 -0.66553736
  0.04385216 -0.35195028  0.28764879  0.32515771  0.10287707 -0.18772585]
[-0.53051869  1.04773026  0.68923519 -0.4741604  -0.26619503  0.61511829
 -0.24510991  0.51824362 -0.32090018  0.49737224 -0.32447336  0.19799313
  0.36549405 -0.66649491 -0.59233606 -0.43298372  0.85126276  0.04695095
  1.03199067  0.1089933   0.73607128 -0.67476322  0.42021658 -0.53736964
  0.97436154 -1.10504678 -0.74020574  1.36980663  0.1605856   0.23045592]
[-0.26726336  1.08991999 -0.46908674 -0.11991954  0.69213828  0.55380012
  0.67238221  0.8075822  -0.49968437  0.30785148 -0.94265956 -0.37619456
  0.14002928 -0.27545831  0.5255627   0.62383385 -0.79435153  0.14181525
  0.70187376  0.36167418 -0.08917539 -1.08420484 -0.0186954  -0.35239642
  0.82440029  0.50660542 -0.08179618  0.23249445 -0.38252424  0.69460472]
[-0.62455674  1.05639884  0.68290725 -0.26494979 -0.18400992  1.17232303
  0.18503657 -0.1813079  -0.46441106  0.65976615  0.02347683 -0.70817403
 -0.55405154 -1.40411098  0.45946564  1.32990578  0.60331223 -0.60247057
  0.73098717 -0.61697426 -0.71654811 -1.73244727  0.01751896 -0.28562859
 -0.51132567 -0.96562035  0.10681587  0.90970126  0.61369062  0.5444149 ]
[-0.01870378  0.83185879  0.98791516 -0.40654083  0.87844044  0.17302404
  0.47676313  0.29868724 -1.05463087  0.02543422  0.33606963 -0.24005288
  0.96898237 -0.44436367 -0.04067005  0.62317183  0.40677417 -0.09347041
 -0.12579169  0.03688172 -1.18874962 -0.12866297 -0.01760447  0.35826148
  1.09457486 -0.7805775  -0.91835422  0.29715296  0.47797783  0.78276679]
[-0.98122751  1.317308   -0.03088638 -0.560729   -0.91836233 -0.03779575
 -0.63033125 -0.43228501  0.32188875 -0.57235595 -0.36627408  0.8413509
  0.09254283 -1.92156982 -0.49486761  1.77507844 -0.92045003 -1.02406704
  0.82924555  0.94409337 -0.53043353  0.42023184 -1.19753641 -0.82081283
  0.91330721  0.43916673 -0.39524521  0.50079125 -0.828357    0.85444995]
[ 0.57221877 -0.15157033  0.76904103 -1.48268022 -1.14415406  0.63467158
 -0.13139453  0.14293686  0.96673932 -0.83159407  0.51898673 -0.2901145
  0.79676784 -1.25940629  0.20875987  1.63030551 -1.14863167 -0.95552329
  0.1499844  -0.40185731 -0.71867269 -0.40744489 -1.04323133 -0.76034359
  0.86598408 -0.97736628  0.58938178  0.76832377  0.0642861   0.51291494]
[-0.76078157  0.54033593  0.90322891 -0.43558407 -0.86102992 -0.36394848
  0.96679067 -0.08052276  0.19156175  0.26570878 -0.10105859 -0.08951735
 -0.62810642 -0.12732027  0.3548943   0.32246931 -0.85714246 -0.5190062
  1.03990514  0.4889136  -0.99740356 -0.4326978  -1.16010659  0.71802914
 -0.15719924 -0.49283998  0.50556626  0.77867706  0.42607186 -0.06700862]
[-0.08819982  0.03003492 -0.66958376  0.77578817  0.5321896   0.92139834
 -0.12717881  0.06932865  0.00761625  0.34612875 -0.88410602  0.75648461
  0.71422736 -0.99017921  0.17912076  0.24877101  0.37463646 -0.16253701
 -0.18971239  0.06509728 -0.12957767  0.07496892 -0.14059729  0.08900572
 -0.00132457  0.65986529  0.82204565 -0.57641981  0.02670695  0.83416778]
[-0.02738941 -0.07193533  0.18490165 -0.52852375 -0.29160726  0.92057265
 -0.85861523 -0.34025044 -0.77893505 -0.28962349  0.5630732   0.1981794
 -0.83004672  0.53194718 -0.95989628 -0.40784671  0.04215195  0.84864696
 -0.0525946   0.71341066  0.86315953  0.25222404 -0.11971226  0.16270333
  0.33776806  0.54682385  0.60722879  0.98313736  0.05975872  0.08847235]
[ 0.56372898 -0.81491528  0.09865361  0.86018913 -0.26848623  0.61942101
 -0.89078727  0.43570877 -0.73450457  0.13931511 -0.26852232  0.80538558
 -0.22838584 -0.77386985 -0.58454394 -0.50443312 -0.75762868  0.64803486
  0.40650429 -0.51593287  0.38727368  0.18605164 -0.90756639 -0.12761399
 -0.48541878  0.65093949  0.23341975 -0.35185924  0.47829803  0.95554426]
[-0.01056536 -0.72104741 -0.01137084 -0.30904015 -0.08494029  0.56314636
  0.03023267 -0.85091616  0.34383284 -0.05786498 -0.34484761 -0.19329961
  0.21806728 -0.34174558 -0.42851323 -0.43599679  0.90983772 -0.40274348
  0.12637339  0.67896225  0.59058915  0.60899442  0.09192626  0.77639885
  0.86612722  0.94777543 -0.10563175  0.77594161  0.7831771  -0.66982714]
[-0.1031504  -0.50778281 -0.35712483  0.57985498  0.95995166 -0.16747689
 -0.40432585  0.63687842 -0.37300016 -0.48485035 -0.56473501 -0.67025272
  0.11561593  0.44510206  0.03990803  0.45602668  0.47897091  0.5507724
  0.28876853  0.68729167 -0.62943288 -0.75043849 -0.90684597  0.4722819
  0.02503718 -0.2640665  -0.86726069  0.95543053 -0.8453786   1.0562736 ]
[-0.14600564  0.60223407  0.58755672  0.63073752  0.99537045  0.64112211
  0.1220166   0.95696712 -0.91043372  0.62764262 -0.08834785 -0.78383888
  0.80956143 -0.48227244  0.64320765 -0.5734436  -0.41415142 -0.67492404
 -0.81013424 -0.16828679 -0.72896606  0.22662354  1.02453683  0.70942237
  0.6346697   0.40913967 -0.73318524 -0.78858648  1.03879693 -0.51654609]
[ 1.14679562e-01  1.39468663e+00  1.01190907e+00 -5.78504200e-04
  1.97397205e-01  5.30706991e-02 -1.04159406e+00 -1.59653762e-01
  3.62386595e-01 -3.42963048e-01 -6.36947594e-01  5.99853837e-01
 -1.01208459e+00 -4.42284267e-02 -3.56004747e-01  3.72548563e-01
  5.44966078e-01  2.85878548e-01  8.26723160e-01  9.57827507e-02
  6.11718788e-01  3.97407194e-01 -2.98117321e-01  3.90992321e-01
 -1.44378148e-01  5.52233428e-01 -3.13312323e-02 -3.37464019e-01
  7.97297401e-01  4.43845145e-02]
[-0.75924667  0.28347168 -0.1263958   0.16049334  0.27839429  0.6303873
 -0.91108158 -0.25552802  0.05398122  0.48845304 -0.06891245  0.8476213
 -0.82881602 -0.77128107  0.83121418  0.13586738 -0.69246648 -0.4831337
 -0.35958783  0.49721433 -0.9395036  -0.36527873  0.6083867   0.42899489
 -0.2236491  -0.65565946 -0.44306896 -0.32967283 -0.09449069  0.11531308]
[ 0.25893122 -0.56715181 -0.62227157 -0.09637447 -0.33664015  0.18280271
 -0.5066187  -0.77848649 -0.2074425  -0.27997874 -0.21858156  0.53308492
 -0.62389051 -1.02729874 -0.14396568  0.45969633  0.254583   -0.15896337
  0.42081061  1.57350247 -1.15797739 -0.69743114 -0.39918946  0.48768366
  0.4219275   0.51561611 -0.60344313 -0.66242193 -0.37294349  1.06865766]
[-0.09309086  0.29093158  0.2750589   0.35830018  0.06775893  0.30961277
 -0.29443001 -0.30001187  0.1432428   0.42031192  0.17699619  0.46229282
 -1.03332485 -0.54451424  0.61651484  0.65847532 -0.72667664 -0.66485281
 -0.56139614  1.1514433  -0.97249146 -0.66021902 -0.48479672 -0.47681789
  0.28354539  0.50839774 -0.02648212 -0.61989167  0.01937611  0.91689798]
[ 0.51786901  0.26504481  0.18761798  0.31238258 -0.34712418 -1.18694045
 -0.36849782  0.14663064 -0.37729772 -0.90849782  1.16014587 -0.35642257
  0.09729716 -1.20697983 -0.17758665  0.80835455  0.21547764  0.53251596
 -0.32577005  0.63061457  0.05565776 -0.73840263  0.36250969  0.01165761
 -0.35136676  0.22647146  0.506121   -0.64668658 -0.3844259   0.84509485]
[ 0.01684744 -0.18420233 -0.26369549 -0.21240304 -0.34343376 -0.23243497
  0.77837205  0.19384105  0.79036009 -0.38910579 -0.0035779   0.22106115
 -0.24976538 -0.30734859  1.10210106  1.73994327 -0.62256156 -1.14346544
  0.30235239  1.3362374   0.01332606 -0.21248602 -0.28093775 -1.38341104
 -0.6832629  -0.9047119   0.49402686  0.35492352  0.02212714  0.32746764]
[-0.31900833 -0.19067533  0.56363944 -0.03261968 -0.1428175  -0.04554415
 -0.42510402  0.03288387  0.51048407 -0.2412143   0.09662652 -0.25180284
  0.06362724 -0.24566566  0.03455877 -0.01942726 -0.23723287 -0.6425844
  0.0910032   1.03129076 -0.23483345  0.05966009 -0.54893945 -1.66359752
 -0.36522311  0.07246671 -0.09202185 -0.40873747 -0.22186467  0.11583157]
[ 1.46421737e-01  4.16136583e-01  1.18018089e+00 -7.30815564e-01
 -5.69257255e-01 -7.14975265e-01 -2.07400196e-01  1.24088426e+00
  5.97743912e-01  2.19614423e-01 -3.76631046e-02 -3.04763108e-01
 -7.56255366e-01 -4.80268298e-04  1.92576442e-01  1.38360303e+00
 -2.63160756e-01 -1.34239063e+00  9.86891425e-01  9.76703961e-01
 -2.82569971e-01 -6.11308771e-01  7.33269912e-01 -1.72017858e+00
 -2.64305656e-02 -8.65803332e-01  6.74971719e-01  1.80085905e-01
  5.25139779e-01 -3.93265312e-01]
[-0.80156416  0.84814825  1.63020792 -0.6159076  -0.5677123   0.29699389
  0.40397795  0.82892974  1.14444611 -0.46677367  0.83710102  0.6920293
  0.57888184 -0.49550114 -0.1346444   1.03234224 -0.6963116  -0.83464498
  0.18493508  0.88263199 -1.105064   -0.2186037  -0.49933562 -0.7668079
 -0.55048739 -0.04577425 -0.95417706  0.32560332  0.14749181  0.43231943]
[ 0.65260065  1.01711911  1.20165092  0.25657254  0.48271895  0.48458463
  0.15876212 -0.05754483 -0.97535915 -1.86478272  0.00648115  0.43430907
  0.7880947  -0.3235826   1.22704079 -0.24186059 -0.54644839 -0.58370236
 -0.1522154  -0.03886063  0.11702243 -0.12740976  0.21350493 -0.77899488
 -1.66717503 -0.53041181 -0.12289639 -0.77726289 -0.53590811  0.61676136]
[-0.02109539  0.55944437  1.16493919  2.02732506  1.68673766  0.28587406
  0.83673355  0.44421099 -1.16030047 -1.19218683  0.50324727 -0.33501858
  0.1289311   0.24621079  0.59950437 -0.41463174 -0.84887241  0.62920073
 -0.05513728  1.11345107 -0.8833924  -0.66920455  0.9554571  -0.61164772
  0.46742905 -0.11033369 -0.08383769  0.11373372 -0.83854719  0.93142668]
[ 6.03577359e-01  1.33775846e+00 -4.59983776e-02 -6.65434331e-02
  2.64827284e+00  4.11515449e-01  2.44375888e-01 -2.37180539e-03
 -1.96263887e+00  6.54935260e-01 -4.54805392e-01 -1.47602764e-01
  5.09861278e-01 -5.12481401e-02  1.10107931e-01 -8.75508564e-01
 -3.74238414e-01  6.50253087e-01 -5.12942776e-01 -3.50724401e-01
 -2.89404467e-02 -1.29938768e+00  8.44988287e-01 -9.62045982e-01
 -1.55689977e-01  3.12942478e-01 -5.92930591e-01 -8.62613413e-01
  1.07148043e+00  7.27372646e-01]
[ 0.10515107  0.40965246 -0.88646136  0.33177673  1.72351893  1.51473979
  0.64955545 -0.35733892  0.07924184  0.99803979  0.58768696 -0.25948034
  0.90975457 -0.08813766 -0.03740915 -0.95521104 -0.76022725  0.75991431
  0.94929383 -0.51411143 -0.47715454 -0.83679942  0.97520231 -0.43054143
  0.49375547  0.10842112 -0.60394575 -0.50851029  0.21123037  0.06720911]
[-1.22659772  1.15503219  0.75157628  0.70574325  1.35441925 -0.61210653
